MTP
version = 1.1.0
potential_name = MTP1m
scaling = 3.288025287776413e+04
species_count = 3
potential_tag = 
radial_basis_type = RBChebyshev
	min_val = 9.000000000000000e-01
	max_val = 4.000000000000000e+00
	basis_size = 4
	radial_funcs_count = 1
	radial_coeffs
		0-0
			{-1.877561276981425e-03, -1.427173360713556e-02, 3.354022655413593e-02, 1.027073105656106e-02}
		0-1
			{1.615234378579255e-01, 3.226201438853983e-02, -6.987344769926748e-02, -1.040034990915682e-01}
		0-2
			{1.655185494385895e-01, 2.112667803042715e-02, 1.013931434306985e-02, -5.020656810010138e-02}
		1-0
			{3.228227083715023e-01, -6.541066705449386e-03, -1.150475784073876e-01, 1.838579627577118e-02}
		1-1
			{2.442614677877709e-01, -9.177323984777969e-02, -1.233191277756664e-02, 2.728107276151420e-01}
		1-2
			{3.613186904723696e-01, -7.603402111659949e-03, -4.465524655918619e-02, 2.275549370476452e-02}
		2-0
			{3.976772418118728e-01, 3.709787686407217e-03, -2.824566565505773e-02, -1.098423752366496e-02}
		2-1
			{3.458797129925046e-01, -1.035173531844215e-02, 8.987852533565720e-02, 4.647997551069728e-02}
		2-2
			{4.918747048890697e-01, 1.133822139402632e-03, -2.250591472149222e-02, -1.200307930765623e-02}
alpha_moments_count = 5
alpha_index_basic_count = 1
alpha_index_basic = {{0, 0, 0, 0}}
alpha_index_times_count = 4
alpha_index_times = {{0, 0, 1, 1}, {0, 1, 1, 2}, {0, 2, 1, 3}, {0, 3, 1, 4}}
alpha_scalar_moments = 3
alpha_moment_mapping = {0, 1, 2}
species_coeffs = {-3.697460691630547e+00, -4.545110894867354e+00, -6.789092309129504e+00}
moment_coeffs = {-1.097023455584714e-05, 2.295472914446860e-11, 7.588071842499147e-18}