MTP
version = 1.1.0
potential_name = MTP1M
scaling = 5.364088555278886e-02
species_count = 1
potential_tag = 
radial_basis_type = RBChebyshev
	min_dist = 2.196317857633029e+00
	max_dist = 5.000000000000000e+00
	radial_basis_size = 4
	radial_funcs_count = 4
	radial_coeffs
		0-0
			{2.308751537425793e-01, -8.307472336466691e-01, -4.992405906138736e-01, -8.552502239846278e-02}
			{9.382020944374192e-01, 3.269898317528434e-01, -1.125651532423922e-01, 1.354864565201850e-02}
			{2.363690039257410e-01, -4.342542791667309e-01, 7.594966286145894e-01, 4.227502640231092e-01}
			{-1.029717774962316e-01, 1.198328183096627e-01, -4.015629336506296e-01, 9.020998384952356e-01}
alpha_moments_count = 259
alpha_index_basic_count = 112
alpha_index_basic = {{0, 0, 0, 0}, {0, 1, 0, 0}, {0, 0, 1, 0}, {0, 0, 0, 1}, {0, 2, 0, 0}, {0, 1, 1, 0}, {0, 1, 0, 1}, {0, 0, 2, 0}, {0, 0, 1, 1}, {0, 0, 0, 2}, {0, 3, 0, 0}, {0, 2, 1, 0}, {0, 2, 0, 1}, {0, 1, 2, 0}, {0, 1, 1, 1}, {0, 1, 0, 2}, {0, 0, 3, 0}, {0, 0, 2, 1}, {0, 0, 1, 2}, {0, 0, 0, 3}, {0, 4, 0, 0}, {0, 3, 1, 0}, {0, 3, 0, 1}, {0, 2, 2, 0}, {0, 2, 1, 1}, {0, 2, 0, 2}, {0, 1, 3, 0}, {0, 1, 2, 1}, {0, 1, 1, 2}, {0, 1, 0, 3}, {0, 0, 4, 0}, {0, 0, 3, 1}, {0, 0, 2, 2}, {0, 0, 1, 3}, {0, 0, 0, 4}, {1, 0, 0, 0}, {1, 1, 0, 0}, {1, 0, 1, 0}, {1, 0, 0, 1}, {1, 2, 0, 0}, {1, 1, 1, 0}, {1, 1, 0, 1}, {1, 0, 2, 0}, {1, 0, 1, 1}, {1, 0, 0, 2}, {1, 3, 0, 0}, {1, 2, 1, 0}, {1, 2, 0, 1}, {1, 1, 2, 0}, {1, 1, 1, 1}, {1, 1, 0, 2}, {1, 0, 3, 0}, {1, 0, 2, 1}, {1, 0, 1, 2}, {1, 0, 0, 3}, {1, 4, 0, 0}, {1, 3, 1, 0}, {1, 3, 0, 1}, {1, 2, 2, 0}, {1, 2, 1, 1}, {1, 2, 0, 2}, {1, 1, 3, 0}, {1, 1, 2, 1}, {1, 1, 1, 2}, {1, 1, 0, 3}, {1, 0, 4, 0}, {1, 0, 3, 1}, {1, 0, 2, 2}, {1, 0, 1, 3}, {1, 0, 0, 4}, {2, 0, 0, 0}, {2, 1, 0, 0}, {2, 0, 1, 0}, {2, 0, 0, 1}, {2, 2, 0, 0}, {2, 1, 1, 0}, {2, 1, 0, 1}, {2, 0, 2, 0}, {2, 0, 1, 1}, {2, 0, 0, 2}, {2, 3, 0, 0}, {2, 2, 1, 0}, {2, 2, 0, 1}, {2, 1, 2, 0}, {2, 1, 1, 1}, {2, 1, 0, 2}, {2, 0, 3, 0}, {2, 0, 2, 1}, {2, 0, 1, 2}, {2, 0, 0, 3}, {2, 4, 0, 0}, {2, 3, 1, 0}, {2, 3, 0, 1}, {2, 2, 2, 0}, {2, 2, 1, 1}, {2, 2, 0, 2}, {2, 1, 3, 0}, {2, 1, 2, 1}, {2, 1, 1, 2}, {2, 1, 0, 3}, {2, 0, 4, 0}, {2, 0, 3, 1}, {2, 0, 2, 2}, {2, 0, 1, 3}, {2, 0, 0, 4}, {3, 0, 0, 0}, {3, 2, 0, 0}, {3, 1, 1, 0}, {3, 1, 0, 1}, {3, 0, 2, 0}, {3, 0, 1, 1}, {3, 0, 0, 2}}
alpha_index_times_count = 576
alpha_index_times = {{1, 1, 1, 112}, {2, 2, 1, 112}, {3, 3, 1, 112}, {4, 4, 1, 113}, {5, 5, 1, 113}, {6, 6, 1, 113}, {4, 5, 1, 114}, {5, 7, 1, 114}, {6, 8, 1, 114}, {4, 6, 1, 115}, {5, 8, 1, 115}, {6, 9, 1, 115}, {5, 5, 1, 116}, {7, 7, 1, 116}, {8, 8, 1, 116}, {5, 6, 1, 117}, {7, 8, 1, 117}, {8, 9, 1, 117}, {6, 6, 1, 118}, {8, 8, 1, 118}, {9, 9, 1, 118}, {4, 4, 1, 119}, {5, 5, 2, 119}, {6, 6, 2, 119}, {7, 7, 1, 119}, {8, 8, 2, 119}, {9, 9, 1, 119}, {4, 10, 1, 120}, {5, 11, 2, 120}, {6, 12, 2, 120}, {7, 13, 1, 120}, {8, 14, 2, 120}, {9, 15, 1, 120}, {4, 11, 1, 121}, {5, 13, 2, 121}, {6, 14, 2, 121}, {7, 16, 1, 121}, {8, 17, 2, 121}, {9, 18, 1, 121}, {4, 12, 1, 122}, {5, 14, 2, 122}, {6, 15, 2, 122}, {7, 17, 1, 122}, {8, 18, 2, 122}, {9, 19, 1, 122}, {10, 10, 1, 123}, {11, 11, 2, 123}, {12, 12, 2, 123}, {13, 13, 1, 123}, {14, 14, 2, 123}, {15, 15, 1, 123}, {10, 11, 1, 124}, {11, 13, 2, 124}, {12, 14, 2, 124}, {13, 16, 1, 124}, {14, 17, 2, 124}, {15, 18, 1, 124}, {10, 12, 1, 125}, {11, 14, 2, 125}, {12, 15, 2, 125}, {13, 17, 1, 125}, {14, 18, 2, 125}, {15, 19, 1, 125}, {11, 11, 1, 126}, {13, 13, 2, 126}, {14, 14, 2, 126}, {16, 16, 1, 126}, {17, 17, 2, 126}, {18, 18, 1, 126}, {11, 12, 1, 127}, {13, 14, 2, 127}, {14, 15, 2, 127}, {16, 17, 1, 127}, {17, 18, 2, 127}, {18, 19, 1, 127}, {12, 12, 1, 128}, {14, 14, 2, 128}, {15, 15, 2, 128}, {17, 17, 1, 128}, {18, 18, 2, 128}, {19, 19, 1, 128}, {0, 35, 1, 129}, {4, 39, 1, 130}, {5, 40, 1, 130}, {6, 41, 1, 130}, {4, 40, 1, 131}, {5, 42, 1, 131}, {6, 43, 1, 131}, {4, 41, 1, 132}, {5, 43, 1, 132}, {6, 44, 1, 132}, {5, 39, 1, 133}, {7, 40, 1, 133}, {8, 41, 1, 133}, {5, 40, 1, 134}, {7, 42, 1, 134}, {8, 43, 1, 134}, {5, 41, 1, 135}, {7, 43, 1, 135}, {8, 44, 1, 135}, {6, 39, 1, 136}, {8, 40, 1, 136}, {9, 41, 1, 136}, {6, 40, 1, 137}, {8, 42, 1, 137}, {9, 43, 1, 137}, {6, 41, 1, 138}, {8, 43, 1, 138}, {9, 44, 1, 138}, {4, 39, 1, 139}, {5, 40, 2, 139}, {6, 41, 2, 139}, {7, 42, 1, 139}, {8, 43, 2, 139}, {9, 44, 1, 139}, {4, 55, 1, 140}, {5, 56, 2, 140}, {6, 57, 2, 140}, {7, 58, 1, 140}, {8, 59, 2, 140}, {9, 60, 1, 140}, {4, 56, 1, 141}, {5, 58, 2, 141}, {6, 59, 2, 141}, {7, 61, 1, 141}, {8, 62, 2, 141}, {9, 63, 1, 141}, {4, 57, 1, 142}, {5, 59, 2, 142}, {6, 60, 2, 142}, {7, 62, 1, 142}, {8, 63, 2, 142}, {9, 64, 1, 142}, {4, 58, 1, 143}, {5, 61, 2, 143}, {6, 62, 2, 143}, {7, 65, 1, 143}, {8, 66, 2, 143}, {9, 67, 1, 143}, {4, 59, 1, 144}, {5, 62, 2, 144}, {6, 63, 2, 144}, {7, 66, 1, 144}, {8, 67, 2, 144}, {9, 68, 1, 144}, {4, 60, 1, 145}, {5, 63, 2, 145}, {6, 64, 2, 145}, {7, 67, 1, 145}, {8, 68, 2, 145}, {9, 69, 1, 145}, {20, 39, 1, 146}, {21, 40, 2, 146}, {22, 41, 2, 146}, {23, 42, 1, 146}, {24, 43, 2, 146}, {25, 44, 1, 146}, {21, 39, 1, 147}, {23, 40, 2, 147}, {24, 41, 2, 147}, {26, 42, 1, 147}, {27, 43, 2, 147}, {28, 44, 1, 147}, {22, 39, 1, 148}, {24, 40, 2, 148}, {25, 41, 2, 148}, {27, 42, 1, 148}, {28, 43, 2, 148}, {29, 44, 1, 148}, {23, 39, 1, 149}, {26, 40, 2, 149}, {27, 41, 2, 149}, {30, 42, 1, 149}, {31, 43, 2, 149}, {32, 44, 1, 149}, {24, 39, 1, 150}, {27, 40, 2, 150}, {28, 41, 2, 150}, {31, 42, 1, 150}, {32, 43, 2, 150}, {33, 44, 1, 150}, {25, 39, 1, 151}, {28, 40, 2, 151}, {29, 41, 2, 151}, {32, 42, 1, 151}, {33, 43, 2, 151}, {34, 44, 1, 151}, {20, 55, 1, 152}, {21, 56, 4, 152}, {22, 57, 4, 152}, {23, 58, 6, 152}, {24, 59, 12, 152}, {25, 60, 6, 152}, {26, 61, 4, 152}, {27, 62, 12, 152}, {28, 63, 12, 152}, {29, 64, 4, 152}, {30, 65, 1, 152}, {31, 66, 4, 152}, {32, 67, 6, 152}, {33, 68, 4, 152}, {34, 69, 1, 152}, {10, 80, 1, 153}, {11, 81, 2, 153}, {12, 82, 2, 153}, {13, 83, 1, 153}, {14, 84, 2, 153}, {15, 85, 1, 153}, {10, 81, 1, 154}, {11, 83, 2, 154}, {12, 84, 2, 154}, {13, 86, 1, 154}, {14, 87, 2, 154}, {15, 88, 1, 154}, {10, 82, 1, 155}, {11, 84, 2, 155}, {12, 85, 2, 155}, {13, 87, 1, 155}, {14, 88, 2, 155}, {15, 89, 1, 155}, {11, 80, 1, 156}, {13, 81, 2, 156}, {14, 82, 2, 156}, {16, 83, 1, 156}, {17, 84, 2, 156}, {18, 85, 1, 156}, {11, 81, 1, 157}, {13, 83, 2, 157}, {14, 84, 2, 157}, {16, 86, 1, 157}, {17, 87, 2, 157}, {18, 88, 1, 157}, {11, 82, 1, 158}, {13, 84, 2, 158}, {14, 85, 2, 158}, {16, 87, 1, 158}, {17, 88, 2, 158}, {18, 89, 1, 158}, {12, 80, 1, 159}, {14, 81, 2, 159}, {15, 82, 2, 159}, {17, 83, 1, 159}, {18, 84, 2, 159}, {19, 85, 1, 159}, {12, 81, 1, 160}, {14, 83, 2, 160}, {15, 84, 2, 160}, {17, 86, 1, 160}, {18, 87, 2, 160}, {19, 88, 1, 160}, {12, 82, 1, 161}, {14, 84, 2, 161}, {15, 85, 2, 161}, {17, 87, 1, 161}, {18, 88, 2, 161}, {19, 89, 1, 161}, {10, 80, 1, 162}, {11, 81, 3, 162}, {12, 82, 3, 162}, {13, 83, 3, 162}, {14, 84, 6, 162}, {15, 85, 3, 162}, {16, 86, 1, 162}, {17, 87, 3, 162}, {18, 88, 3, 162}, {19, 89, 1, 162}, {39, 39, 1, 163}, {40, 40, 1, 163}, {41, 41, 1, 163}, {39, 40, 1, 164}, {40, 42, 1, 164}, {41, 43, 1, 164}, {39, 41, 1, 165}, {40, 43, 1, 165}, {41, 44, 1, 165}, {40, 40, 1, 166}, {42, 42, 1, 166}, {43, 43, 1, 166}, {40, 41, 1, 167}, {42, 43, 1, 167}, {43, 44, 1, 167}, {41, 41, 1, 168}, {43, 43, 1, 168}, {44, 44, 1, 168}, {39, 39, 1, 169}, {40, 40, 2, 169}, {41, 41, 2, 169}, {42, 42, 1, 169}, {43, 43, 2, 169}, {44, 44, 1, 169}, {35, 70, 1, 170}, {36, 71, 1, 171}, {37, 72, 1, 171}, {38, 73, 1, 171}, {45, 80, 1, 172}, {46, 81, 3, 172}, {47, 82, 3, 172}, {48, 83, 3, 172}, {49, 84, 6, 172}, {50, 85, 3, 172}, {51, 86, 1, 172}, {52, 87, 3, 172}, {53, 88, 3, 172}, {54, 89, 1, 172}, {55, 90, 1, 173}, {56, 91, 4, 173}, {57, 92, 4, 173}, {58, 93, 6, 173}, {59, 94, 12, 173}, {60, 95, 6, 173}, {61, 96, 4, 173}, {62, 97, 12, 173}, {63, 98, 12, 173}, {64, 99, 4, 173}, {65, 100, 1, 173}, {66, 101, 4, 173}, {67, 102, 6, 173}, {68, 103, 4, 173}, {69, 104, 1, 173}, {55, 106, 1, 174}, {56, 107, 2, 174}, {57, 108, 2, 174}, {58, 109, 1, 174}, {59, 110, 2, 174}, {60, 111, 1, 174}, {56, 106, 1, 175}, {58, 107, 2, 175}, {59, 108, 2, 175}, {61, 109, 1, 175}, {62, 110, 2, 175}, {63, 111, 1, 175}, {57, 106, 1, 176}, {59, 107, 2, 176}, {60, 108, 2, 176}, {62, 109, 1, 176}, {63, 110, 2, 176}, {64, 111, 1, 176}, {58, 106, 1, 177}, {61, 107, 2, 177}, {62, 108, 2, 177}, {65, 109, 1, 177}, {66, 110, 2, 177}, {67, 111, 1, 177}, {59, 106, 1, 178}, {62, 107, 2, 178}, {63, 108, 2, 178}, {66, 109, 1, 178}, {67, 110, 2, 178}, {68, 111, 1, 178}, {60, 106, 1, 179}, {63, 107, 2, 179}, {64, 108, 2, 179}, {67, 109, 1, 179}, {68, 110, 2, 179}, {69, 111, 1, 179}, {70, 70, 1, 180}, {74, 74, 1, 181}, {75, 75, 1, 181}, {76, 76, 1, 181}, {74, 75, 1, 182}, {75, 77, 1, 182}, {76, 78, 1, 182}, {74, 76, 1, 183}, {75, 78, 1, 183}, {76, 79, 1, 183}, {75, 75, 1, 184}, {77, 77, 1, 184}, {78, 78, 1, 184}, {75, 76, 1, 185}, {77, 78, 1, 185}, {78, 79, 1, 185}, {76, 76, 1, 186}, {78, 78, 1, 186}, {79, 79, 1, 186}, {80, 80, 1, 187}, {81, 81, 2, 187}, {82, 82, 2, 187}, {83, 83, 1, 187}, {84, 84, 2, 187}, {85, 85, 1, 187}, {80, 81, 1, 188}, {81, 83, 2, 188}, {82, 84, 2, 188}, {83, 86, 1, 188}, {84, 87, 2, 188}, {85, 88, 1, 188}, {80, 82, 1, 189}, {81, 84, 2, 189}, {82, 85, 2, 189}, {83, 87, 1, 189}, {84, 88, 2, 189}, {85, 89, 1, 189}, {81, 81, 1, 190}, {83, 83, 2, 190}, {84, 84, 2, 190}, {86, 86, 1, 190}, {87, 87, 2, 190}, {88, 88, 1, 190}, {81, 82, 1, 191}, {83, 84, 2, 191}, {84, 85, 2, 191}, {86, 87, 1, 191}, {87, 88, 2, 191}, {88, 89, 1, 191}, {82, 82, 1, 192}, {84, 84, 2, 192}, {85, 85, 2, 192}, {87, 87, 1, 192}, {88, 88, 2, 192}, {89, 89, 1, 192}, {4, 113, 1, 193}, {5, 114, 2, 193}, {6, 115, 2, 193}, {7, 116, 1, 193}, {8, 117, 2, 193}, {9, 118, 1, 193}, {4, 140, 1, 194}, {5, 141, 2, 194}, {6, 142, 2, 194}, {7, 143, 1, 194}, {8, 144, 2, 194}, {9, 145, 1, 194}, {4, 146, 1, 195}, {5, 147, 2, 195}, {6, 148, 2, 195}, {7, 149, 1, 195}, {8, 150, 2, 195}, {9, 151, 1, 195}, {4, 153, 1, 196}, {5, 154, 1, 196}, {5, 156, 1, 196}, {6, 155, 1, 196}, {6, 159, 1, 196}, {7, 157, 1, 196}, {8, 158, 1, 196}, {8, 160, 1, 196}, {9, 161, 1, 196}, {71, 120, 1, 197}, {72, 121, 1, 197}, {73, 122, 1, 197}, {74, 123, 1, 198}, {75, 124, 2, 198}, {76, 125, 2, 198}, {77, 126, 1, 198}, {78, 127, 2, 198}, {79, 128, 1, 198}, {36, 130, 1, 199}, {37, 133, 1, 199}, {38, 136, 1, 199}, {36, 131, 1, 200}, {37, 134, 1, 200}, {38, 137, 1, 200}, {36, 132, 1, 201}, {37, 135, 1, 201}, {38, 138, 1, 201}, {0, 171, 1, 202}, {70, 139, 1, 203}, {70, 152, 1, 204}, {4, 187, 1, 205}, {5, 188, 2, 205}, {6, 189, 2, 205}, {7, 190, 1, 205}, {8, 191, 2, 205}, {9, 192, 1, 205}, {105, 162, 1, 206}, {39, 163, 1, 207}, {40, 164, 1, 207}, {41, 165, 1, 207}, {39, 164, 1, 208}, {40, 166, 1, 208}, {41, 167, 1, 208}, {39, 165, 1, 209}, {40, 167, 1, 209}, {41, 168, 1, 209}, {40, 163, 1, 210}, {42, 164, 1, 210}, {43, 165, 1, 210}, {40, 164, 1, 211}, {42, 166, 1, 211}, {43, 167, 1, 211}, {40, 165, 1, 212}, {42, 167, 1, 212}, {43, 168, 1, 212}, {41, 163, 1, 213}, {43, 164, 1, 213}, {44, 165, 1, 213}, {41, 164, 1, 214}, {43, 166, 1, 214}, {44, 167, 1, 214}, {41, 165, 1, 215}, {43, 167, 1, 215}, {44, 168, 1, 215}, {35, 173, 1, 216}, {35, 180, 1, 217}, {105, 172, 1, 218}, {106, 174, 1, 219}, {107, 175, 2, 219}, {108, 176, 2, 219}, {109, 177, 1, 219}, {110, 178, 2, 219}, {111, 179, 1, 219}, {74, 181, 1, 220}, {75, 182, 1, 220}, {76, 183, 1, 220}, {74, 182, 1, 221}, {75, 184, 1, 221}, {76, 185, 1, 221}, {74, 183, 1, 222}, {75, 185, 1, 222}, {76, 186, 1, 222}, {75, 181, 1, 223}, {77, 182, 1, 223}, {78, 183, 1, 223}, {75, 182, 1, 224}, {77, 184, 1, 224}, {78, 185, 1, 224}, {75, 183, 1, 225}, {77, 185, 1, 225}, {78, 186, 1, 225}, {76, 181, 1, 226}, {78, 182, 1, 226}, {79, 183, 1, 226}, {76, 182, 1, 227}, {78, 184, 1, 227}, {79, 185, 1, 227}, {76, 183, 1, 228}, {78, 185, 1, 228}, {79, 186, 1, 228}, {119, 169, 1, 229}, {35, 194, 1, 230}, {35, 195, 1, 231}, {35, 198, 1, 232}, {70, 196, 1, 233}, {36, 199, 1, 234}, {37, 200, 1, 234}, {38, 201, 1, 234}, {0, 216, 1, 235}, {35, 203, 1, 236}, {35, 204, 1, 237}, {35, 206, 1, 238}, {70, 205, 1, 239}, {39, 207, 1, 240}, {40, 208, 1, 240}, {40, 210, 1, 240}, {41, 209, 1, 240}, {41, 213, 1, 240}, {42, 211, 1, 240}, {43, 212, 1, 240}, {43, 214, 1, 240}, {44, 215, 1, 240}, {35, 217, 1, 241}, {35, 218, 1, 242}, {39, 220, 1, 243}, {40, 221, 1, 243}, {40, 223, 1, 243}, {41, 222, 1, 243}, {41, 226, 1, 243}, {42, 224, 1, 243}, {43, 225, 1, 243}, {43, 227, 1, 243}, {44, 228, 1, 243}, {70, 219, 1, 244}, {112, 193, 1, 245}, {35, 229, 1, 246}, {0, 232, 1, 247}, {0, 235, 1, 248}, {70, 233, 1, 249}, {35, 234, 1, 250}, {35, 236, 1, 251}, {35, 237, 1, 252}, {35, 238, 1, 253}, {35, 239, 1, 254}, {105, 240, 1, 255}, {35, 242, 1, 256}, {35, 243, 1, 257}, {70, 244, 1, 258}}
alpha_scalar_moments = 61
alpha_moment_mapping = {0, 35, 70, 105, 112, 119, 129, 139, 152, 162, 169, 170, 171, 172, 173, 180, 193, 194, 195, 196, 197, 198, 202, 203, 204, 205, 206, 216, 217, 218, 219, 230, 229, 231, 232, 233, 234, 235, 236, 237, 238, 239, 240, 241, 242, 243, 244, 245, 247, 246, 248, 249, 250, 251, 252, 253, 254, 255, 256, 257, 258}
species_coeffs = {-1.274261191300971e+00}
moment_coeffs = {9.143476453292630e-01, -7.424128208590935e-01, 2.029824063839405e-01, -1.674162423642269e-01, -1.963257816247100e-01, -1.560079888194525e+00, -1.514701332163457e-01, 6.655088142243306e-01, -2.464241874194535e-01, 3.516616538261176e-01, 3.169796375137194e-01, -7.262589724717414e-03, 4.633558803301829e-01, 5.125520275504681e-01, 8.621188684736267e-01, -1.508112781730948e-01, -2.015656130843566e-01, 2.240751474812100e+00, -7.076175402877544e-01, -1.977188023571224e+00, 5.999613823680259e-01, 4.744075397953855e+00, -5.082015259223276e-01, 1.832256028872821e+00, -4.298745122655410e+00, 1.568710230134911e-01, -4.778453891973110e+00, 3.778885892775051e-02, 1.876031779586119e-01, 3.508874293614879e+00, 3.853439186352235e-03, -2.274459894673706e+00, 2.920772820244153e-01, 1.979288369614545e+00, -4.462284874050928e+00, 1.070579771633385e-01, -2.981645327677344e-01, -4.451742923267979e-01, -1.223701059781676e+00, 2.965905824757836e+00, 3.712254853941363e+00, 1.716179771977585e-02, -4.248231399846597e-01, -5.121922815087826e-02, -2.655824788025913e+00, -1.846946793684957e-01, -2.698935306233451e-02, 2.832682947159043e-01, 1.196936397231229e+00, -3.492909250716921e-03, 1.053492402187617e-01, 4.324182355551698e-02, 1.846118216941898e-01, 1.922074394531598e-01, -4.739758722597492e-01, -7.289146405067040e-01, -4.497237525121863e-02, 2.448263942598837e-02, 5.338985316749989e-01, 4.465672446737867e-02, 1.349066271806492e-03}
#MVS_v1.1
energy_weight 1.0000000000000000e+00
force_weight 0.0000000000000000e+00
stress_weight 0.0000000000000000e+00
site_en_weight 0.0000000000000000e+00
weight_scaling 2
#:L?Դ\
пzWD ?2k e?d@RP?׏gڿ5--?X:++ҿ|@[m?,!fֿzۜ?"_=?102uο      ?DK0?y}S@7-t?'RL?6?{] ?ՏK{@t)8&?<]?m|%?Mg%?N"+d?me??3@?+L?hn~?CӜ?Ӓ ?\N^Q?EX[o?r[_?he?i	=w?p0z?$T?^?#? z^x	?Az?F:qG?1Z?wJJ?0
\@?|bT?yC q?P}[bu?_vk?8s
?4?r=[y*?oN?	 ?6ܳ*?t|Ct?Uu?Ҳǉ?	G*=5?=u?_!?dr@PdX>?C+c?D}?J]@O @%Ф֗??Is/Qup?C ?:ܿ?$|Ԃ?rɻ?b9?.^'п*[?9'LI o?bI?Ar4ڿT1-<?>ؿΪҿ9yD?l[ֿri싗?<?<[w[Uο      ?ΧVV5?h>5]@/Ljp?u0?,$?-i?Νj?*@K9??heE?@4??op:?r?JѸ??<C?[?'(?@<?=$?
*?7?Xt<X?XQ,?q0?hEٔb??17k?ڧB?y:?!c?_?9n?c?Wv?,p3+k?))-p?LB9c?'??300L?y"?X?{?C㴓?zZ?}W?̠Uը??w|?1y?R?@v?	|%Y?e(su?:GC?#f?&_?`}n~?y?9Q?{
?D!)?zo?,cˆ5Ͽ6*+?nPnJB\g<=?[ӊ|.?dٿkD?BL0`Cѿ9?*YAֿHME?`Y?_5ο      ?^zl?shV=@ =E:?Sb'?~4?7
?ϢE@?y?~+4?IF?q3j?8wAc?s.N쉖?=O?@$(?#9?	l?NtJ?M7|>,?BGúd?	")i?i?]K?;?]C?aJ!?]'?L|c?$Vߢ?i>??n:H?	?ȭL@f{??[W6s?^?q2?&k?fD?F~;???ձ`?A?}Xо?n<
?V?i`@$k?ij}n?Yq8?$@̓z?*$J*?hY'?~?|	?p'?ʈ1:|?XpjX?P6eDtH$пssn?UG|俘%B}-?GM)g?EٿnEJ?B w&w@=HYѿ&/?<ֿ%0?r?vͿ      ?  ?Z25@HIOZ?S;Xk?T,?ˀV?&dt@a_E?|E?)ǆo?F?Ex?d?q?1u#?3?7b?PA?b.?m?YA?#"^j?0?5eis?n|¢?w ?$W2W[?`>#O?xCʘ?;G?Df?#?$?w?:ta:|?@a3Ѐ?o2t?ԑI?qn?v$z?#q?}Y=,?DMF?VQ?/B?Pr?|4?- ?:%ω? @xc?f(p?B?sޜ@~T-?ލ	??0Z?"*9Y?'w?)?A'?oM="$ϿKw85;?}$俏Xn6e?d2?f9?s(ٿȰRP?ՃV،	ѿECvl?1ֿkj?}[A<:?sڒ̿      ?}1H|?sA"@ǊV|?mmE?\?k`[?&O@9<?ʪ千?tZH?4 	*?v|e?里?:n1W?]/)+? ?ma?i}<(?6?ʕ)&Y?!ߔ?FZ9+m?5)ۚ?V?PD4@?6?C-8?7}&}R?.Yt?#f+??a~,?|8?gހǶ;?Z?AK_]?<Jt?uT?xe?W롺Ж?>*S?;/5f?}! 2?acG?774r?\zĂ?tI?K?. R+?xiW@Qޒ?% r߯v?iy? @Pj?z@O3,?Pc欪?	pX?N|?m{y1?C?^_? T?6
OC2}ѿi?Xpwe?[7A?{3Eۿ\.?[ 9sgҿ~8ե?$!AfkֿZ_@0?x?rMxο      ?G>9h?NKq@3hoY?K奞?э؂?q+?4L9@q<˚?RȬT?\Th??޹w?\byI#?=èK?˄?Lg|?BR?xS?8ݞ?Eִ?ᲝS?G^?s5~Q?3kr?JW?w4b&?b픛o?Xk6|?%\?^?'S@s?Q5Zl?V(?y*g?,s/?r_l^c?ѨsDi?B`ߗFb?/B?Oā?JE?&7?*$?jy?@z2?
FC?	%}?Fh%?G?fz?)Fr?d@9m??:S?،is?J/[?
>a?<X?2$.t?JBi?..K4?4u?<`@?i%Z?`͆țd;ѿmc?${[P2?p ?8ftۿS|0?1[dҿK,U?Pmֿz0Y_=?Kc4?N}vο      ?TF)\?My_Tm@A?HjhR?ib;?!!c7?:@/PRm?ˬD*??ǣW{?1ig?lG?wSf?#^$?㒊?X<g?tBw?t?"&E{?׹(,?f|Bѓ?\R?]4@Ē?2i?Ǿ/"? F?كɱ?]0L?6%D?>0?9{(E?W5?vގ?<PD?3d?0pj?,d?\4]?7UB?cV7?Q96?9?WkJ?Й??DQ?tƽTp?Jb?m)}?b,r?Cj4,@?wbS?ev?n=?\X?L??Cz?'G?pJ\ouF?ii? \2?A_ֳ=?ec7&֘	п>?}3ߔX?<^~+_?fRڿjA-CC?	j	aҿ띮c4?o>ֿ{""?LCk ?\ο      ?Ƚ8m?N,#Q@%t?a?.?3(?5_@!Ƌѽ?Q?v?C:!?7Q4m?`
?Vnh?p@6?z?gm?q?в??f_!?fcGa?TbS&?G?q+?ӫ7r?/G5?kN~0<?V҉?tUF?r&6?o`_4?"j'?>?Դs?dx?ӊ%{m?}+E?h?D?պRۺ??\؏?/g+X?eԛ?xe?+dk?OR?CA䢃?ۓgHց?5+7@sy?Njf?䟬&?ި9j @,]0?0 M?)C n?F]?H?2qkz?ɠ?-@ Q?u"80ܲ/vпyQ`B?PEVI@8E7>U?iO3?2ٿEȀW7?0jNT14Q9ѿ,\9?7Nֿ\??<k=?0Ϳ      ?ۡ?on2@AHJ?܊Q?(69?L?Pv@l? [^?m?`am?)L??[K?t?P?	0?Xz?v?L?ݓx+?n:Lg?`Βu?[V?xǟ?9͝)?`}?(a?Sv\ݹ?1`?Hij?N^?zC |?/:?]Z1/y?|%
}?ܢp?>N_?ae?l&A?9²?;ג?^^?%~x#?]H?0.?~M?N=ދ?C?UN@b؎2?1QkNk?gs$=?)J%@l(1?vT?총hy?ݳo?.f?'?^w J? H]f?Ӗ/w!䥚ѿ}?	俄8ƌC?5U?Q-<ܿ{W?LJ!-+!gzӿ΅?
WֿPGں?-2R?߄Tο      ?~?šxz@XE?dU?ЧY~?6??#@[rc?$7c%mg?`{#\?P?.;?n5~?K♁?A?k^?݂д?$aɴ?=N?_?V6c'?+|p?QJ?KX	,?5?1}\_?r4r+??I#?uDP? ֪?s Ξ5?wFjQ?OJ?,&W?`_\?E|+Γb?R@O[_?Ӵ?1D? I=S?&<E5?j6Û{?$Ik?\"?ыT?{Au?ns?48j`u?<k?	@p
.?J?.<K4q?ld ?7Q?w?๎?z`4?Ow?cΨ?r.?m4?zgئ&͵пuYa^?amesI?d?
.zyڿztC?a_3#O	ҿP^@?L=ֿQ.+?]|?SB2ο      ?fkU?e]L@l;?<d?Ws?7?N'l@)??,~?o_3?Be?]׮X?2,*$?qvi??J?v/?Ӄ}?R7?
&Ӎ?xa?xj1?{?J&?&)D?~08?bO	IQ?j(?bМ?I?)?e?@H| 	?E-Ɏos?V6w?<,뺣j?Ej?@b5s?IDOf&?u7޹? 'u?#?f^?X=?Y2??9)#?_?Jf@ېB6?|l#d?G5|?, @E$@?(?cwMʠ?X!A5?(?rZc͜?f?`1T?%YRV:пdp?iJM?*?Q?nڿp<?b|3:1ѿ">?~HֿNOw?ci? -ο      ?|k ]w?Tro=@W$Sě?{w:h?笏?ǭ?z:;@ZhH?'?=N?&?5dg?N7H?F@
?F?Cq?6tB?}PI?̵-?{J.?lar?$Xd?NK?ķ?^ȉ?q2n?Nqn'?"n=?Qr.?4?gsx?iq?m,?/?7XǛv?{?˸h?uy?΋Z2?T]?U1?ۖ?y-x?a<??>,?$T&?'NՈ?T,Մ?ES@3t?"Bj?z?US+w @PBK?Ѧn?EB?s`:?vEG<h?47J?F?' ?͂+[:ѿ(b|?|C03?F.T?kۿq&?s}B遉ҿUR?EWֿtvz?qeu?;cο      ?uIC?18f@K?%4?<p?"%0?r@i9UY?ث(?yyݢ?TxdW?G}?BÁ?Ҫ0?nw?L?"{hc_?y)U?yP˰^?{ч?sp?\T??zx?_7?G}7?5?RvR?Kp[??'fb?\K*`?L0?P\2?/Z3?Rf?ո|l?!c??M"?'&_͠?ꞷٲ?}Ӻz4?*H>?:?(%?2?h=?V!ay?~2 ju?hZq@"?jV?ql_t?Ro/?|bil?DN`?.趤U?\խՉ?g>1?
mT?|rR?SU?cE|f&+"NпhrcB4?pXzym?'g?P6ڿ QP?H$Lnѿ(͔#7?QֿQE?EXOk?m`=ο      ? n?	=E@X?^|6nP?{;
?@3?`.O@no?ߏ?w+U?ޯ|?oB?w[!>?q۔?Sfzy?2m?w9?FyF?X?nq?L8-?+*e?ny]?Պ>?gB?iK=/?YaH?o%
?rv8SD?`Vj?-$~?-Şx
?gU?r?/Mhj9w?FY|?SPr?) ?Ty?K"m? 	x?.?3:?'?a̲?_댐?9O?~d?}x%?:w@PA?l?z? F@,??G?bPO?_S?CN_L?3?q':?׹=۱K	 п*H+?}gLsZ??7?7fXٿkK?;q|^#ǇKѿ{82?(;7zֿWD>?넫?62NͿ      ?Yk?òq/@c >q?t=?Q:c?N\?P(1@>?yA?vGyH?q?B"9}?]UY?E??*6?P?4@~?KiI|?R&??]\?ϜSW?yk?qF"L?ڍ?N!?rU?odAȭ?P?iO?Ƌn*?^w:?hY?kYb>=?u[|?yq?Z>}?r[Uo?J!Us?v?4S4(r?d?enե?12?S
t?R#뾲?F۔?K
g?J'?Pl)?@:g? @.	.?մVq?pl?]e@H1?5?N'?5~	?\?\? X?.?Ç(4ѿ"M?j*Oe-O1?`ځ?j[ۿHG~+?M3LU@Vҿg%?xqֿZ?!`?~Dο      ?pAEe?Dm@%u?S x?Q|.?vN@$??GX\@ev?OG?}bS6? i?ݲ?JQ8?<f5?ۥ$c?	"Ÿ?PN?;|S)I?l(*??&?@T?:?L|Z?i?#t?K̝s?B$?=`Ce?r6?#ګ?ߦ?x?<D?NL[f?Hsl?FVmDmke?/jq?Lk|?x["?ŋ?~f}?~T?33?D?d?>:?SM}?!\W`u?\@T1Q?)<V? 5Gw?v)?Z"Nң??#y?wO?0Kg2?,BWr?"j=i?.
?.鉤31ѿֿ ?+俴=h???I#T?pHoMۿl]>?}Fѵ+ADҿ'?GuֿAHd?N|?iYbο      ?=Q gU?0El@'X0)?%rEe?3za?%r~?	B@ʹk?mx@?EΘ?F4Pj? B?9͈?)q??Th^?i3{t?Sh˽t?d!({?am3?}\Ԋ?+U?q	]?H?h˚R?Xθ:?EA9?G?̯ͫ?K?Bgb?92?*?{`?,,3Xg?	^n?vg?q[?#x?P>?f:?:Ǆ?Fa?,/v2?[u?~??=?p?Ǯu?+.| @P[=?v{GW?jy?X[?WZ ?OԾ?i?Z]?W?CS.?$ݏs?nd'C?<Wұ:пd~4)b? 8信E?PǦ?3?UZmٿ]~[<?þYZ\|ѿ%Og?auIֿV?/C4?hGͿ      ?Sm?|Ҋ3@P ?|af?u*̐?g-R?Fo+׸@~{(?-?(72ʠ?$$?^x*y??ٵ
?|gܻ?MCs? dA??p=|?;?4g	#?QdC?1dh?gt.?.[Q?DȆ?tC=%7?6- g?5'S$??)|Cl?\??|??EY?a+9'Uz?e\}?}tq?%5?('e?A?l7l?$s't8?)
b?[?kqn?e/3\?-W?> ?^B?a#@Q1?ĳqk?Do亂?C&@.?gע?sڤ?g?\l?]Lݥ?SHfCM?ń]?ap.п7,r?).俆%Z?<\?uG%lڿUL`HO?5nIgѿUfH+?ё	0ֿrGe??DSͿ      ?&7c?dT|LJ@p?w?e?ʁ?Qf@0~?0?J ?.!$?T%?J?UڐF?"?I?o?xZ?o?ZU?4?ѧb?)-7?[؝?fb??%`|H?
\"?N^?2?+H?=%?']P?I{(?Ҏt?5%L{?Tn?I|?ŇmY=?{z?g9>e?!M|c?sT?;H?t [?cwKZ?ѡ첅?=݄?F}%?	l@m+t?'Yh?2U*>?u? @тX?O0?d?B*?l'?j?~U$ݺ?M2?SLihjѿ%G7?Y*'nEdU0?WK?G^!;ܿɒM(?~>S9e%!ӿJ?yT	XֿRTUPG?ftGR?te¼ο      ? q?u?NAz@~xθ?T?e{x?U7ڭNC?$@.j#5k?ऀ$`?^'O+?͉?R~"?3Ё?*|-?|`^?X}H	?)@?E?"0J?9\?· HR?S`K?~??Xd?\*?:g?9{ڛ?f_?FnY?u'?'Ce0?%R?NjgJ?QA;sX?9^?[B
b?q	$Q_?]A\;?N`V?zL?t]?3"z?go?<B??_`u? ET?҆#w?6P	l?!&@C)Ky?ho
AH?\Dq?3^??n-V(? ??Mh,?b ?vN?IdaJ}?-Ї?>©pٳO 1п\9?)3]x?Km?}5`ڿR?tzLcfq"ѿc.?ֿՊ?:=@?C6s6ο      ?\3?Z B@|Ij?ׇU1?Ї?K	?5H@\??R?~,?Pr]?cC?לH?O{?(kW?J֛V=?\sm??$?)rn?8x?S.Bh?<U?6
?>s%?t%?By=?4_T?H?]8Т?\DR?3=?P?JU?Udc{?3b`s?E4t?z?KbA{#?t/$?%:0?y{??\-<p~?g{ U?5?N!)v?]	?Miπ7?iOj{@nc0?Nqsq?a!?^-}@Yy_?cBP=#?8?Źi8?$5?}W\u??'ʛ?VOZT?~Wy\,sпoM?؝ǀmW4iD?II9?3jBڿ2X$j:?bXGE.y_ѿj{5?<nSNjֿZ?(?yο      ?4i6Å?d{H@nꌏ?I-om?]ŉ?d-~?,xqf@R}bu?P?5).?y
?2&?0RT?aa?fH?7D~G?)!7?l?%{?!?&nB?܈6`?h3?XJ?Xh?T?;d?G??3ę?M}O?'/tF?ґ8?,.?̦VWq?YZu?:K:h?Hm=l7?-9?-s?9CA.?dT?Ų?TA?A=;ѫ?6y?b?[]\?[.?${^k@䃗?wa?@+y?ɰp @ B?^s&?jHIM3?y+??uŞ?PJO?rtQ?%ũ'ѿIP?ib`u(m4?U?~8ۿ)?7Tbҿu2?SV$~ֿΒl?ؗ5?Q1;$ο      ?1l@?pȗ^e@L;~?z1X/?
)??p@/!S?(F~%?Fe?]MיES?x`v	J?O7N?:? CI?y?-2F?5nB?ΰ1DJ?L}?Uy3?`U?SKaq?0W0?V`}A?xE?n\d?l"?zpX@?ų)?4F?o]G«?ZP?G^?ؑ)g?1,"xk?;ۻc?έ?_?9f?~q?li?t%q*??>?/q?faa?py>x?-u?KsPK@U#V?dKU?mt?^Xl?UAb>"?MW<?k2? UIyp?bcʱͷ?n!i?Xſ돷?n?8!jtп{5I|7?4toF|c0 ?s?#^ڿ*}I?00K~ѿm̲
?1])ֿ&xj?M.?l{IYͿ      ?,9?5C@JLj? ?/γ?,?B#=@aqn?Ǝ_?d?Z?|PwH?wؼ?>>?7(?w9?Īm?1~͗?@y?ޱi?b&5?+R<}e?tΚ?nj?D ,?Ybn?@$s?.U?)x?WȐ?[r?ٟ8A?|M?Oҩ?mw?dR{?AVo?wvnL?:?M|?|7?_7e5?br?֟j?$3?x;N5?OC&Xz?wd? )"?YR"@?du6i?=?[(Ķ @#Dj?? a3?*B	?J֟ğ?S?teq?D?k1ILڃ'&ѿ*_HqJ?g	d俅?&?)V3ۿX1?P?wRҿbx5?ޒMiֿq&?o?Zvο      ? $h]?"m@j}?ϵ?q/?;V?d@Qϳk?34>?#?Z_e??,?g塶?jyW?]?w h?T(i?(to?`?E`$;?H+Q? >?u?L-?K7?F!Q?\1~$?@c̋G?VrC??!_#?
??~R	7Ec?  f?F==Gb?t:?Ͱ?%4׮?\(R?	'l?97?GP?sM?Fy7y?r?.=$y?	qq?Mt@]?gqO?DΛ"Mt?bPk?R滑?%=~?:8?5SO?"J3q?!Q?.E?P?0E7пxj??nO俚s I?(;?dڿ}4?-05|ѿ)C? ֿI{E?ػ'O?ș~1pο      ?2b?K?@@9h?;X~? ^?oͯ?lzJ@uNf?hq?Ȧ`k(?>?g@h?KU?v;j?=GN??dBE??"/??a/9?v1? W?e1Rkc?`D?*i?9E#?(N$q?g(]X?l?N29'Q?$K??;	x_?V%??Ҍ9?-Au?Ruz?ݕppȮo?Gqk?4ë1?l26?do\?1/]$?>4i?TJ??$oҏ?(\/?V?"/?jW@?.2,h?ajt?·@{Cy?{e?z `uQ?찕H;?fo?$θb?i>?RR?oȱa* %Ͽj;	D?n?+ai@?#VFٿJK?W<&@jпy/<w?<6eֿ-|ꎽ?05;?wKͿ      ?b?Ї?rt @ s?Q/?
Dt{?h-_?1Bd@"?1?0?/u??;c`?\}<M?el?X[mr??2l?eF^.?؊	=?m^X_?`?sm?QLk?۹w0 ?4?7ŷ	?Xb?T޺?/q\?	0	J?0?Ft1?-J?F%FA??jeh0?9mt?oM?K+?^F?x?=_e?P43?a?X?a]?Ni?}=0?ut]>?)&L$[@F?i[u? ?Ɔ)U@h*?23?M姪?8Tku?;L8?NŮ?,J?'3?bXZKпϔn?Ai|Jb ?I?CwE#ۿ&"9?HL eܿi1 nҿlb]x? ֿ"q#?`f?ΚUο      ?׮j7?z[`@ٱ?]?}x?&o?TD@J?*3%%?k?`H?I-i?if?v4?UN?(Lk[?yC?9?MB?Dq?!q=?9g2Y?A?n$?Ly=?%t]?s?U:?[j`^?!G?`VӠ?[ǁ?2"?#K?^}k?_eKR\q?XOg?]f-?|4?I|f;?;ڶ~?7e|?]!?gm\?yU?ZN	?K*?oVy$x?3g[y?7<@cş]?l.z&[?#!y?(D0?ZS?1kt?-'"?8PPo?#?ܠĕ?79W?Lʒ1M?K.${ѿ ?Eio|?dZC?	Tۿ3w*?uCߔܗޫҿ,}1?S`B|ֿlUo?I_?PD \ο      ?g5Hd?z}q@O?:e?M+5_0?qt(?aN@\~?b,YU?P?FW"y??s`?|y)]x?&u,?K?C
sڻ?&}?? š?M)*?NIVE?JD5V?@3UYGV?#%?e 1?0.r?'v`)?c?)?>mQ?Ж?q,8?X7?3XI+.?>?~]וh?UϘ n? =i?7)7-?@z?;ٌ?ZO1G)C?m?}?F;?d!Ө?h Oj?U[˂?TFـ?8/w?DS@cG?sXKSW?96{?̘Y?ڞ/?x
?c^[?M8\?EZ?Ӓ?(_h?VC?˴ߴ)P)uп$eA?:tNW]̮<"?g?$+gXڿ	1?9D1#ҿWo?)0ֿl,4?UK̽i5?}a\.yο      ?f?8$O@4ȵ?DS:?jr?di?,a@|p$'?\Z<?[xl?%$X?</1?]V/?HI??Xw$/f?[?I"?՟q?U<D ?|o?Wk:=?&`?h#+/ ?hk?]`? 2e`?!ҥ?}~yK[?bKmT?1'?)r>?λE?^/Ŧ6?	4P?ޟr?;0uw?j?^ɲ-?fc?dΌoL?
%-?+߽a?qej?5R?&?"?7b?U?іda?!@G`y?ce?0>VB}?5e @T+5&?ۦ}?,?JN?e%?1n??hjm:,?($ᶿ`ѿFj,A?XT{
*B?IH:0?)IiAۿxXP)?e=]|mҿ	}?fjt"iֿGk?2Q$?j-e=ο      ?	Sg?ˏq@.??fO?Ш#?VF@zy?QAH?*?1$r?NI?Gp"?d#?H-8?_ϟ?Y=? XS??tke?{ ?1#ZR?X]?l?ek .??nb#?ٟ?KPI?$lQ?G}mǒ?]]3?#
?9)?t5?|nWd?Sh?HmWb?M?R7I?]?|b?Y~&?#ƙY?*e;?!om~?{1|?~q?<nFz?@Ts?}L@\y?EQ?niqt?Mne֯?Z?Oa?iр ?:f?xc?V 5ȏ?^0m?~.n?̋ưxtdS9Gпv?/81d?f{?~ڿB2?9G2-?5ҿM}hk?do!ֿjr??غxο      ?$2?>:#J@e׹i?,ur?=x"V?y@8?\{@L(4?;Kb??)<I?;*? \?YOv ?zdM?A4?[0u??*?F??(?cѲb?^_D?j+?441?d3?0 ?oh`?%?ݣ?je$?,>9?^2)?JӂE?LiDt?;y?hQVzl?
_z?e?7ϧq?;Wi?@ٽH??i?ߣ) ?K?j.`?~O?)G:҂?9J@{-{?hqkf?Q_[~?d6* @+0?a?X+*ݡ?_?H?k-ʞ?Rh:V?Qjr?2?ޓnw?i*_ѿ.P?J@td?QS)?aۿ>,?Y"+ |F,ҿu,*? drֿ~x(E?5="?3ο      ?"Jr?Jģv@OI~?G?ϵ?5??n@" º?
eZp_?n	?1$?4$Nj??3?%[?|Ž?/!v5?Ǒfr?`=? j?9G?V7R?=__5?\l߳T?i?]vJ8?ʛK?;/Ӑ? 0~?\!?ЗTP?yeI?Gq<@?ܧO?rbPd?wylf?Yg?WDv?r3t?١?[m?@!R?T
y"?{-Ň?fl0]?QhD}?н="?nO?`U/r?@v{?"p#P?CJy?V?T؛?4R?dZ9Ga?V>?;?djpY?AV"?q$?/T,68%Ͽ2w@?̮
=5֦?ͩMU?ٿU;@[?6
lj@L+ѿ%V?dxֿ#?ۑ?2@tͿ      ?7"D#?2 /@5S\r?LJ =?R?;#?n @^Fq?_eWm?8Rr?kջ??x?3`L] ?ԋF@?YӤ?_1-?M? D}:?fx87?w  ? u^lk?|]?}ڴ?9k?l!?'<8~?%z??p?6c#1??t	?+PY?)[?R~?{ ?+Z9Fv?8d?0Ѐ?Q0?Z?H^o6?)?s?c⧴?P~?	ߪ1? b22?벋?`1@\8?}}s?oX{?dN@iA9?)%Tk??A&?YFH?Cڣ??;*3?h%hѿlƎ?H[+kGf]-?yb?kۿm1?W.#IYUS) ҿJ1?*^ֿY;?`X*?t5+ofο      ?cSlh?Hw't@Bd?6W?h$m?>hYN!?i@v!z?Sq9J?St?@w?-7V?=eM?24у?2ź?1q?,V~?_J?yc?)`؄?܃?P??{?ߠi?9SS?P񇦜?qB?s?ZJpC?MN?Il?)
?o?6	?]6b?
J2g?PQa?3ddWL?YO?ʓ?z`0?Y6^"?YdZ? M?[ޠS?<z?k? yw?X`q?h	@<? 3MOP?w"vr?? cV?J;C?8i	ϑ?x?m`(?. ?x;I-ײ?=5?',趿L0{Nѿ"?h_>rvAd?X&I?]只ۿfd'?YIx ҿC!?=mlֿ)pv6=?8ï?Ԡο      ?VUv1j?e zp@ &_?-ʲ?{8k.ꡃ?9f+?D@-e}?4,P?Mb(?j[q?\T}?!+.w?h3?,+E$y?N'5?գ?1??\?5,?Ozr?l[QDR??R<?Hf?kD?5 H?'y?T%L??Ca?,mcos?a?ޅ	,?" ?i	&d?qh?yP|Ib?`d!E(?0O? mKI?6|v?9dú?^ne?l{}?XN`?UlD?#?RIz?9/Րr?ąӍ@?G%Ι<uR?Z1t?+y?z2?ʣ\?)c?fkf?zn<?Oڬ?Ȓþk?Г?>5.zlXSпgZ'9?r Z1(??ڿF4?0&!4 ѿ/Dw[?S
ֿOq?TQ?SIο      ?~F+?pC@)a1?wβ:? \?S?#N?VN@a?{k?c[̞?)u?:?e?ܐ?s e?H?]?<?G:?Ycא? ?K?^a?G?Ƅ?pj]?7$\?zk?-oSק?0Bp?1ſ?00?耉?t9??Lݾ?/?C쟞s?OrTx?fSӽWhj?~?ecg?h5!\?FՒι?Jj(zX?$?""i?Xc?AW=f?鯿?L9l?zڨ-0??0|O@9 N?Z8ye?K_a|?~':L@dS?M1|?y720?kXO?Yɓ ?@9o>?o3?:!EPI?B-ɵ>qYпot?Dq??Hކx|z?'jNۿwB",?G6쿿t0P`ҿ[L>?k%ֿyd?b?v%Iο      ?HX]@8?q<[@ ?;?$\CR?UU.c?~{@)'hK?5'c$?#×?
W"@?S^:?B>3?MzTs,?.21?+6t?NU9^?G?P?^?eS?$Ml\?LK7??ړ?za˚?V!D?jX?Zw
?	SQU?	[?%"?_M/1?73Թ?<3nBo?z6s?j͢,g?GzQ?ptY??8
eC?<?$?ǾD7?MSAi??.xq*?_?K}?taq?O@P$?ܕ<`?sSny?j
 @*?2?,%n?BbC?aͭ?lb?6$_?                                                                                                                                                                                                                                                                                                                ư>                                                                                                                                                                                                                                                                                                                        ՐI?ǲp{п1?TC[;p?$?ڿ)<?k7GѿBp+?ֿNonS}?e
Б?m_&Ϳ      ? U?'tK@ r$9	?35?T[>z?e2?C @?'??ڪݝ?ji$?~!T%?Gy?D8ei?m?Dm?Iɇ6?(a??Ҍ8?xnBސ?49b?x#??8j>.?Jy>ڧ?Ө?4;?N/?CgS?FU]I?ɢb?BO?q5n?աt?bz	wz?3l??_<_?:"?I?Nh,?_8 ?]j?ۯy?ޗ?B|?^Nȃ?IĂ?;@>F?Iamk?8n~?&!@FP;?4K<?et?o*Q?\ bD?l̡??m?eFT+*?s
kѿ69?|4)]=?KmM?ҷmۿF#(?.QCWu_ӿC%K?n܇\ֿ.Ǘ?&H9?}_ο      ?=0pTHt?S_@v@XI?_0"?2'7?R0?BÚ`@jxޅ?,XW?-a%w?e}?%vjH?7s?wz?	V?^]?wӂML?)!?X+?9Lh5D? M?O?8Ώ?) ?u?s?_(QB?Xh?$r?"[|C?/g"}?BA&?r̚?0,?PWT_a?);e?sD6+a?ZE?N ?w?a?f8'?7k?c`b?i\Ң?px?V ҿ?ow?5Fp?@>:?'=N?ֆnr?l覸?a3DP?}Gm?ˡŲ"0?,?dՄ?NVtc?y)%_?fN|'?yENyfѿrE?5ne~}?]?UYKۿCh3v.?O)n`ҿY?8KY{ֿ0qn?6?NTSο      ?=|)O?2g@{+?^M?ki/ta?GO?٨n@Wlv_?,1?aA֔?GhӼW?rh??`$X?\i?lN?Jf?7?|^?Fxe?ly?~4?PMGa?Wb^xT?.\t"?9đ?X-|?E	!?lŚ?,?}jm?d?6o?$?M7?\ԡ?s5xf?Қ)Cl?4Ek/e?W^9?_)?HV?]k5?h?*"J1?e i?(Ȭ?qe?1?<:h3}?̬At?6r@N,Nm?/S&wU?m w?i?I?|yI?%6Z'e?HCG?o@q??0uw?+.? 9Ls
| ]]пYN;?HKX俎dR?5d>V?Sc_ ڿ)X8?k/Y9ҿ=׋N?XuѲֿ>NO=F? ?QG TIο      ?7?' vJL@Pw?&B?˴#?oJ?iy{@O?5[
?,6?i}:?Q6?k鸆?x+?\(n?r.{?yfM?*7?_B<_?
7M?&?M_?NY`bO6?O"	=?>e.?ƅ?8ÌD?Nk?kcC?L9	>?qA?}Z5m0?/ͭd#?yf;?G']q?]?Lt?s_/$'i?4?T1S?!9q?/?pxLD?/l?!3?JB?[IVT?񦬡?ܿD?jJ$?VX@`sŹ?a?U7{?' @uT?Y*s[?АO?:C6z?@9U{?fP&+?g}?                                                                                                                                                                                                                                                                                                                                                        ư>                                                                                                                                                                                                                                                                                l ?}n$ M)r]ѿS4~?X^1U?CiE"?^ۿ:*?|O{@aR8ҿ-OM	?RRqֿ6J?C}Г?V;ο      ?<ec?JvZ	p@[_?5?B3hxԅ?*zj#?=렺
@`6tx?M??Wq?Loz?	fk?ɠK7?q~?Z? f1?^pm?	U?/	7?&?IT?M?	Շ? D
C?	?'a?^?y'?ˎD+?oj?ڕR?,?5M
?qf?(`fQm?\j;he??0 "?:`?|8?Ċ?c5k?j֏%?a?6mv6?4@?@k{~?[+FŅcu?s7G@A
?DB!mX?(`$#w?`?$2&?e)?>P)fE?;?$͝H?61?.6?yR_??qx-FÁп؞^G	?z,??{Nt-?Yڿ{pmB?BPoۤѿ?AsֿC??~Ϳ      ?tłJ?w
J@$!ܜ?%[ ?ܧf?a	?#e@Z
W??At?A5i?}F?g?Fp ?z?[4ya?X4?ܐ?rߌ?򀸐?٘Y?姒:a?ODp*?)J?K<?1.\o?{x0?KE|?čA?S?Ο?="?;?A6i?㬉ܯr?lu?`JSk?xJ?@?Jֈ/2?GU)OD?*&/`U?3]:3?Ȉ}?(Zd?y?l:?^>?F?E-{@$Q?iPc?sCi}?5qC @q~J?NI(?X?hRf?dDAh9?(1N?W+?<ՙ%?^ktr#LѿVc,?s~vCc-\D?X?D ۭۿbkX-?Μ;7!KݺҿI~ji?CY`vֿ[?+<
?Yݗο      ?q\EU?;i@J4?EF1Y?XɒU?*/ʨ?w@4f?ba:?sbO~?2۔9^?3c?C?ա;?8?&x/?8Pp?y4ei?UDp?Ї?s]GW?nT?@AQA?y?ҁ?.?RQ7?o?LQI?sʫ?X?ax9?ee?HsmC?ܴtf?O4j?C%a?fz??I?\Ĳ?'?~A<?E2?ʇVպ?Y3?'?5Ucz?Ret?lRy@GoM?"NST?<z+s??r8?ڗy?Fp?[?wW屷?oȍ?g3c6?Ï,?eZg>ųvп^>"?%cIUC)ί? 2?n4oڿC?%TH
ѿ{P??	;Sֿ Ӽ?=2?(OͿ      ?'[?hT?@(0e?U|?0%?6?"_}:@
U?o?^?QJO~m?-?dɚ Ŏ?G?G{vh?/rٸ?J>O?0?o^%?1H?q	 ?c1e?5L?r׾?AA&]?,^4?dg> ?7O?[!wk?+bE?Hg3?<n?sB]?S^?	5ux?2N}?M,q?8%?9N|?MY?l`?AQb?T֣?iHp/?,ü?V/?3K??(XL?BXJ<?l@??Ehm?e?|O@Sί?+?9nҜj?hҧ?{E?1 N?w?                                                                                                                                                                                                                                                                                                                                                                                                ư>                                                                                                                                                                                                                                        <n?ڳHv7VпnS?5]俫;>C$C?X|?; ۿ7X3(9?^[_$Vҿj?p2ֿ=4ݻ?^7/s?L,qJο      ?-?>\Z@/;?LV3'!?t܇?<7?R@8:(<?[;Cvi? ~?]Bq;8?5A=u?	.pي?w,F?\t?~?\f/?iU? tL(?Jh?+C?
l\?QE.@?2X.?DH?$4	?Cc/?~{c?QZ?C7E0?oeY?yw?8k?ۢf!?o?FV's?^j?1Z6?m6>?%([`?{UJ?Ev>ŉ?]
?A|'?ՇM?pLz ?J?`p?06|?p@FG?5=u^?՟|?yG$/?&s/?}?5iO?% ?\=?5_%?֔,?0;r͊?NaqGMѿ0'?Oi݅!17?
?`lS9Bۿxd;H?KWZLѿbF3ҿ
z?9iUwֿ}0z~l?l? 3ο      ?zԣ"HB?de@Hg=?.?60΅?ԓ?,uFG@]T?N *?2c?nS?k`?z%?e?ZDI?Tڌ?R*'K?V؊D?qL?,\?|I?@He:W?(?x2?3ƿ ?s-[?蒈.t?Qf?	 ?K;?2Gy?,H??0#?yczi?1zep?AqWdd?hX!?Ck/?Dĺ?2tfĒ)?y:%?**?M?{>=G?W?.ۧ?}=}?Գw?_ܓm;@-h=Z?!趌X?7hv??Uz?b$_
?.˘?y?*Ǝ?`꽎P?ifv?$?&<t{"kѿg^k?E[俒cl-?n6?bèwۿgh-?cySELҿD8?B5Yiֿ"\#?xg%?nZο      ?.t_j?\Vq@U .0?Qrĭ?0M@?Ƒ&?. @0{?UYR?V÷?or?M9.?ѿ}Oa? ?";?V%5QU?Sɍ?Ǿ@??L?5N??P#uoQ?c;\pĉ?=f*ŝ?>?ĸ䗃ʟ?H[ہ?iwrz?"?q?݅3^?xOM?K?5?d^Bc?Lqri?Jxp8c?Tb+}?5?A?4e6?[Ձ?^U]?c.?5?@@6#x??"fr-{?Y}r?;@u?gҪq+:R?41&u?:?P^Y?JZ?3냄?(tf? I?uUJ?}ط%?J\?M8|iPѿA`Z1?I俹x[5u?u^+f3?tۿ+?=7_漿6Jҿ-<?ʁjֿl?/6ǿ?'R
_xο      ?%5D?Ob@Tzc?K?1[?Ssh_U?Gf|@POuX?y}y,?r?`u@P?ڝ)!λ?Ģaս?ɥQ?*/?ٗͼ?ki?%.0.Z?MDb?gRG!?k?;uX?#+֒?vD?JL?9*?Jj?x?}*B?Ε??y.I?lI?*F?,?j?rp)tp?`\!e?*?[?C7(?o-??Ԇ?48?)i$?k?	C?v6$?ԓ?a}?mLPѥby?#>sj@w^?fBc]?vCqw?M?[vs?In?AA6?TK?A,X{>?eɁ?;U?'?9UrµIA*ѿSLV?cu?	?Eezۿt7?*
d	 ҿB?Ҩ7
	yֿJyl??ο      ?fQN?)aѓci@MT?ޢ}~{?(R?먼?T6@``?cFk-?RЕ?n^?k}~?	:ڨ? þs???),?[o4Ε]?Z?'qa?Ho?<9j?!QW?h?RDk?0@,d?聢^AE?~8 ?țZ?j־G ?G7#?N+?jn.?wx_Ƽ?.le?LZ"i?ogn?adf?B?Tr?f v:8?֋δ??-7??<qa?@>hi ??X?z~?7w?~?@h@7 n?XW?Bx?OjR5?n6?:䲥?ȝ9CH?l1*Nl?lN?.J]֒?!T?kS ?U%AKpz^*пS ?tQteRJ?퀉P%?Mcmٿ⩴
:?@у_0ѿtJ?nBֿ푽?#U׋?yؐͿ      ?E,?"x%@FI?h@t&?BN?`[˜q?Ŧ0`L@b׽?B?̬Yڢ?:%?HTk?tu?^Y?/?M0?g؎?E[?EIj?T{=.o?ttH?Cl?c҄3gT?vȲY?\CF:?k?$E?fF?ߑg9?lա??C}?fk?Lq?0r~?&?r??ߗ?"*H?۾gS?=yR?]B&]ŗ?*e?4F?+%?&[?a?'S?TQDh?a@Il_6v?X!(Zr?a!$?@(ݲ?y	Q?_	?x??{% +?rѳڟ<?ד1?(E\ɋ!elпz(z=?I*5K?mFg??Q3ڿx)w=?RNrToҿ>?_'ֿ* ?i`g?3%A
ο      ?N9	?2oMJ@(8??Y*?I?Z
Q?زQk@5}?e?]x5Pț?['X?h
{?IYp?S~?}ؽ?2x;"?I#[}?IQ4?+ʍ?,]c??MS!a?].eimI?|?ns?Ji<?Z|䉅?\*/?뛀?uҒaK?X1?l(?Xܹ?j!?髦r?Wͦv?m9jkg?lW?r"$Z?]s?%bٲ{?\"?C	?*e?IHȖ?	̉5҈??"hٖ?R'T0?ʉw*!<@~e|?T3b?Y_;dy?`rY?9?S?
ݠ?H0?:?D?'S|z?                                                                                                                                                                                                                                                                                                                                                                                                                                                                ư>                                                                                                                                                                        kq)?>C'u]ѿ5,iz?k]a|^e?Aw҃?*bmLۿLm:?"l5㿿Ö*Jҿ$~0<? YwֿU[g<Ի? V?]gͿ      ?,Mb-?~4^@24f?5?i'Ն?ﵠX?x,b@U~EB?h#?af~鼘?ɟI/E?S,[l?S>Xu?i?Sqk?sG9?WH7?v:.?!]6?+\Ka?꧂s??+w^?T_;F?v9Q?B)?e CQ$?9?ȅ?l$"?)T?"{a?\Z7?PWޯ?]?AN9hp?auu?Ik?6,O?v?UI?6?/L\׌?-%?Bn}bL?ɀK? CF?F5Y"?ni?%?4%jB@o8?zUICc?_`%}?a @>?Ġgu?L?z(o?Hĩf=?8m?Tݮ?&?GP=SEgѿYSu?EpqKd2?!uQg?/:ܿw?3V$q .ӿ
-?\3vOֿsBº?9-\?
ο      ?m?Wz@0?.$?|?8*>?S2"@_>?d?VzTE??k.8?Y==+?\}g?5s?Kîa?a**?N)?T?/2S?l!|2:?|oB;4K?`T}?9?w%l?pfE?KmP?D>?,g-W\?nxs~?pv7?7?Xt'&1?B9'=?^1g]?7""m]b?4]?AFuh?12_?D6.?4HZ?qy?'g?B%?df?B/u?V^?-{v?fk?v@No?
UBH?zRp?Zs/I?#*?PA?2RL?\r?$d8כ?8]JHZ?Îc?9c?\BQPпTYtr?KY'?y';?IۿP
!6?X#x&ҿ+j+;?psOֿpҊp?3?ݾ8?ש$ο      ?}b?h?NIR@eJQ?T8x?֘ǊԌ?CU?wʑ@7xk-?*^??c(?؀R?KsZ?U,?]?R$??L{8-?\eI?$8?ُQ?.q?z;`?\Jkꦛ?hٰb$?j?z.h8R?G?VP1?Pi+Һ?7K? \[g?(Ze_?1/P?epk?rq?GK;Rwu?IIn?MtnS;?pj6^?I}t?
?o|M?B4?#`0?Wo?=aB?fV?LL?}y?ڞ@g?wb?`%P?4{~ @"m?ƿ{93?=8*c?ww?Gu?h(*t?LC?dtr?j,Iп?3G?"rQ俞%?ұ?ʀJۿ,;?V ֿE=ҿu`?Gֿ99폻?T9?{rο      ?eqsL?~6aYNd@uU?Ith?t6?[ a	?h٤@9UyZ?f0?$?q4P?+_-R?|jԇ?a8C?`Nf}?؜hk?`(Ic?Z	7W?W^?b̖? x<B?55:B.W?Z"`?yӣ-&?B?7>?QfV08?NDJ?x
J?7?=r? W??9y?ЫPJi?1 n?)$e?jR+?0?N?	LNٴ?ݨK ?R4'?s? V!s?JQN?X@L?YbwjU?'dw?}T@ð쓥?2OpYU?]w?RʪA?o@?vZ?_5?Y=N?m$?dYܚj?JZд?0?tCL!sѿkǕ͇?k俤Mk`?6DR?zZMۿ;bt-?#qTd**mIҿ!?7ǁ`ֿ V?ijy'?3
QJο      ?ts?ٸ#u u@YOK^?v[T?nЬi?2p1?iH@?
@Z?|G}?r|?\U?|^C?8+#L?ǀhS?ف?E?L&H?E?Ȏg?%ۼt?r
P?iC.q?JXd?7??z*N?,ޞ?.CC?n??~rQ?mGB6'?]1t9?O^A.?ݖnMb?ֵg?fZFb?P
D?N28.?ĵ^?F۰?h?Cq?O=[I??{?^ߢJ?M0*y?}$q?<<&Pf@e|Qi}?ӦLP?Ys?o?in?xP@m?=- ?%ϻǭ?	-*^?BV??q/+?!悴{пd2ST?ɹsc俧 "?msA?`>gڿD3u??ύ>BYC>5ҿoCZ?30(yֿ̟$?(MI?9ο      ?Ta!?̦V@N6?-M?A7?8S+?-`~ş@
D1?\S	?- w?/0.?{i$?6ۿ?55?b
]?`??츙@$??{L_?	;3?L	b?q-W2]?Ynm͗?+W|?6G?@?4Ic?d˿?z?6ƠL?^A,?:M Na?s0T?ʬ/k?m~[p?
F t?DPi?Q갛;?c&v?&և?;HI9?aM\]D?0J?ܪM?rHo?<d?b!?P?Yvd}?@	j?vaF`?<gK{?&?l"u?[/@?RmOn?Eٓ?S'
ʾ?Q;\#ϙ?H|ĸ?y]?v_ڵ!=
=ѿTf?"俑+?m	/3?Ѝ;ۿ44F8?g}W|ő'ҿ}n6s?XwYֿt?c**?_d&16ο      ?s"^J?nph@vEl+aQ?I#)?CpnL??!?߱#@Ӌ_?gE.?_c?A]?lP%?Ʌ?;S&?ye~L? ަ9?¢bue?\py`?Uh?A"??qP!V?"8?+2?v|Q3?M ?(ڜk?Q`|3?`DK?Pp?LQ1??Ņ?~#~?Uh?K!3[o?hRng?w?0??d?rQ?vq?-04kH?N?ȍn?qID@u?1P?Oհ~?/Ԍv?b@T}ͻ?&:FY?d
+x?O7?z$v-?d9#?EĘ?'"B?8E?4df??j[v? LJ/t9ѿ̅c^?g*s4~>?/-?SK9ۿ+Y1.?S㿿Te]ҿڧqJk?fbֿwz?+"?-
dο      ?ts>?	QKa@"Ys?'?J?
Vn?5@WEV:U?w+'?yX ?
|bO?!y?N4f?GIэ?"^?oq?Bf?d/AY?(Ta?;˿L? VU?5[?"?c?0.?r {ӣ?b{?fT#v?y3?S ¼?Nޥj?[?g	t?^'?Ain?#^hs?@cQcj?cF?KE?Ε.μ?6V?Pge?uE?[?*w?dP?Rkl?d7[?ݳ 	6u|?Lp@m5?:Y`?e8|?-T7 @U?%sxyf?>&?tsXN?/!p?b(p?^9?4?QvTeض^QږUѿ?@yN?\3? idۿ`Ro+?{uhҿb??-nֿ	*8?sJ#߆?t|mο      ?o#i?ẇp@bߐM?l4Ҳ?|fO?*
+?wֵ@E%#~?YS4P?zm?Zor?]
?ј?^kǴ?	"Aw?g?3v?R?.?J?8??UOP?μjr+?k?W覽?f^q?޺
R?Y@I?^V?v9\m}"?@yۦo?zC#?b'M?Jbr*??qJb?0QV"h?7fNb?RP
M?LҒ3?ۦ^?d3?s?^wk?>tͫ?!?Q}?d3^?va*oz?'ք$q?@zc?.IQ?ޑft?]ՙ\?V<?([پ?_eKh?F̼?0OZ|?;"?AT?1wV?I[fѿGlǼ?;|
y保}?{^%?q% ݿ`&?ͱ$;g`]Կ|(?Fտ?潈y?͵(?	qο      ?dG|?
@@h]1f?#[`_?[^eVp9KG?{#%0@O/?gs?νp9Hkm?n?^ih9 ) n9Lv`fe?K	|?4߫!?$f-?#f-?UHd9YjDQf9`<&9ŧ1fw9*?6o<l?L9߲%9tt?fyoW?ŰI}9θ4?	i?
i?
i?Z89Nf99vq']\9ڮ:(? B?hN8? 2o}9q*T9 "nA?uW?ZFn(9X3?ҫB|??6{h9}g^G9ԦOP@`u(?̏x]9;%8o9fK'W?Ϭw?y@9<kf9C3j?
>r9{zE?7!?{a?K3y^>6K6Lп̌@7?_F&F修`ֆ?s?W[Gٿ`?DhXLѿ9䡮?JCֿ:?g?ǲ1jͿ      ?Hzϸ~?A7@n?9~?.?3?!@ |0?M7?o?kŰL`?ʌ?VMn;`?w3;?izZ*?b^y?U ?gW{?I?kB9?Y7m7S?)FZi?U?otZJ?A8J?aCD!?.u1ʭ?jP&p/?-h.?!%?c;U%?JU/T??V<?I͍x{?p?{/-|r?ً" 	k?)H=<?ڳ?|L2	??? w?L4e?{]?-,b?o/?h/?X8R>?WӸ{@a6?'}$ꁑp?)ɏу?@?ӌ3J?Ge*g?t?~0=?*~\?9R?h*E?R|)?S9@@޶n^*Yѿ4?X.Ӄw9*+?7%1?nrLۿ_)?!GXgҿZS?"hֿ(wSz?߰P1U(?]lOVο      ?0f?Ee"r@ޣM?z6?ه?&*"?b"@Qy?F?q?8t?o	b?jFĂ?p+?	T3?
Qҍa?&\? V?0#3?'ZӅ?A֞?`~R?J!	?`T⏪?!)?I:8??)ת?;k?]?m?:VgD?
bB?4qx?pc?f?sum'ȇb?Ű^?Z{?$^sZ?xD?	S/.?2Ke? d?^ð?ٵw{?D/0?\[9Ny?a{3wr?SZ@51?L= bP?:iIt?dn(?r?P?2G4?2?:2@t?5dbu?E!y+?&?ÃT}CbF^п`.?յac?@qI?t4#Cڿ1KjQ?h]XyI&ѿg]?+}ֿ<Xɼ?~>B)?X?刢fͿ      ?w{?fM_C@tB}?d ?Je?H? ׬Q@V<(?dY?E?+?ډ֚?T-?-{?tpQE?ep^?? i?qR?yb?) j+?Ͷg?/K?2si3?ԕZ:?]rv?Dw?Ђyq?dnc?3?T0e?-3?K?^X@?-y?}~?{r?C}%?dQ?m\?qoOɾ?a?9vVa?b<V?	(?Ic?lRJ?KC?X/؇?R[}@f^V?^l?W"%?w'@(hy0? =?I:?$v	?I?ۢ?mGY?ѷ^GS?y(_AıHh02п'@Oj?mf@ZLxa??= 3ٿ^X<?8ᚈhпJx[?	l	ֿ:C9?^ƲbU?Lلğ/Ϳ      ?[W?BP"@e?P%?D@^|?	Zp?N@x᥹?~?PyQQΣ?(E?)Npi9?K*?g2?-?G?T@?5V?af?T~`Ǘ?Z^?bm?MC?ir?3]?ͰŮ??%'? N/?.J?7?MYs?r|o_?kO8d?}{,?b`%o?*]as?EJ??d$?
ƻt?N^?1g+U?"gB\?%к?I?e:?M#~x?&;?<54Í?\q;߾@F?/*t?:fل?B+@33b?Lt?ϡoˬ?z7?Q	?n?RPrJ?#>?`?_Λ}7 ѿ5Y?Blq俼W?@V?Gۿb	i'?tsI9igӿ2?W&_ֿ9*?Et??،Ȃο      ?8K+[x?ٟv@?d?^6?ր?t7&4?wa^@&ʜj?2Y?Rrpϐ?. |=~?/2?Ms0?КL?n&?x~틵?`kA?Aߤ?4Ʃ?12?jiR?QO?~8*F?h?c_f?XS$؛?jY?)]A?IՀ2X?3# ~??A?.?۰=Y&?X3?jaba?nU=d?<ʣk`?2f,?(M?O8q???;	|?CLx9j?
C?m?4CT>w?f)n$?D&&w?VD8p?,Q@yGL;.?yL?7|r?%N?<R?7ui?8u%?u?9QĴ?WUlbȉ?-?
y?%StMп2?r b>?94?fTڿUh`J%?K48ҿ 'Y?GOֿtz$? CS?Gyο      ?:?C=AO@6?\}?\?8 4Q?#L>w@
|?Hi?0-?Ti0?,㻯?%ufV?PYZg?%T?,.=?_[?N'H??GOMq?woЀ?Vc?D.\?d8?R?2+.?c˻?D?n?.?<?Fa?&E;?I%?Mjs?~g`21?uF4(o?:Behcr?	bUE9l?/FRO?Ln?;c/?y`??~?1vc?hm?%ӫ?`mU?@Ƞ؀?Ia"|?<B@95?9ަ9`?GJB=~?0X} @]ki?ʐ3?tI?%콚?
߅?P~p,W?B7?S5!?ڒaxcпCH?ڐ@ۿV?E??Wڿ!Wt??
aQUMRɲѿB?iֿ=ܼ?elv?ip5Ϳ      ?R?;cF@Rt?qE1!?6jx9?H+?pSxk@U?Fv?R?H6?Wā4?!u	f?_|f;?@L׏?0s`B?0M?v0?A?t}l??YG?ʏ#e?W@&?4!e?a(^k?c$Ӵe?~<\m?yׁ]?"z?A>?P/fD?(
4fC?A5?JO?eTw?9G$[{?s?`X?Ւ?sKi?'?3,۫C?QV)?  U?˔#?ڴy?
Q0?7ԧg?Ž?0@)?=H?j?Ҧ.?oWf@Ra?tӻ?yzkX?o^F?&ŮCP?Y	?2U~z?h+?c|^NпNB: ?˖q|?Yo?<[8owڿ547?JZ枝ѿKIT ?+3ֿ졗?$av?ң<ο      ?
l? P5A@&?"F?`*?.>?r_٧R@ip?'?N6գ?	ݬ^?k0?9|qi?`4Փ?M4?fYi?;h^?Be_??i{ "?k(?N`f?<g?݆g?NԿ?"Ӧ? rO?39D?]p4?Q|?R\u?)?%Il?	'?Re%nx?,mͫd.|?m]q?^Z?3\? 7Y^?Ѝm?B{F??wA 
?I.}ϱ?ۄ~"?QTe#U?h!?*?D|@*O?0)j?m:R?")3@ s??Ҹ<?LI,?̦G?X2U? M?fDOi?#KLп  R?.Hv>}?0Y?q0iڿKC?}T^I;$ѿUm?]ֿ?c?I?+*Ϳ      ?E~?;<@$?-н?/u{q?>#?pd6<@[
;?HRKK?R;NȠ?JS?=`'?rFovғ?67h?:; ?S.?c3g?*?>cK?=A?Nq?i?rGT?[]?4?Ѩ	?qu?hC7?t<E_?]ݠ?UǇ?>b0?,?GQ?$M{?	*L?,9t?#V?mr?7 ?8*?Ҕ?׽?K?<?'4R? ?u(?^_?ME@Y?V"q?EwŅ?+i@?B\?jܦ?7R?R%u?4E?u1?V:s?r~b`Mwrп^y?~k3!??0Hn?Q$ڿw9?{j7` ѿw)&G?Jֿ;`?aT?ENο      ?)j?z I@S=Ա?f?;@o?a0
)?H%!p@J!'?_Ej?b?}7?G?{mύ?Nv?`&m?ˮp?^<?q0P?.?H5A?T?jGja?E?rBq?և?#N?ۭ-Pc?G?Su?Č{?*9?(E2?L¢"?g@>?|s?iaj0w?uvo?r?G]?ҵj\]T?'F3>N?g?Xf?NL<?Kcgk?ů?e˫s)?P?q?x@ץc?usd?Z?mSuS@$Y?dɘm?rxs:?gx5Yn?q9,?`+̛?5(?;q8?J'{AϿ.?^%gLMl?H{'?zlxٿңv'W?Gb96ѿ$4?emֿ0[6J{?١6l?25dͿ      ??]?	S1@hzU?(7_`?HX?(W?{@VM?5?N?U,~X/?X}??F+]?Nb?0S"6?7?H(Ś?'FC?I}?ӺU֕?_)9kk?S#@?C?'䭹?փԫ??*
Q?.8ɑ?%瑢?a^
?2$h?Yv?e ?)^}? |?syu?+BdBj?Ly?zg6?P=e2??ȿЖ??ϗ c7?3%8?(ix??lB?~Z{?t\T?][@}Ѻ?߀SHhq?i6i?m3@tlO(?;!z?\?VhjX?yۂ?-;AxX?>?s6O"*k;@	Yը@[î@O@w@O6`s!8] @͇'tF-@x@qhm@v!Z@8٤ѯ/Vwb@i@aycS@Ӎ$آ,dO"B%ĥ 8'[@WҞh@gysfͺ^[>=kU}~5[V;t@(O8!>E݁lB@1oz% bu @        	YI@{T@=@@Jb         K,W@vyˣ9N lVzc        XؒNXl5][E@</lؽ)m@R$@>u~        VޖDGiRE@J9@$AAd,@ARoX"F@C@\(Ƽ@Ì]e(f@>\\X;X5@Ҽ=4@J@A(@r{5觐>3hsYtv{@~ņ(@-~9ܪqh@5a 	0Wj7h|y"~Zo@Q jҴ99pKĖ@וaƙ1@2ܱylЋ4Io@-@9ӛnGV^@|'L@%qk@ld"~@Mv@z-+.#@wGn@q5	@

@qƋG̋@j"UO@% 0쮒][@u'        Op/tZu)4A]«z	c@        $n@8451Pj=@w@v        ?]P^ PsHw^@-kU?4ee@]ouVڢ@e@$E@        nh@\C@TfVߣ7.>,?}Mo ojR
	@~Dad>ffƊf.U:Ȳ#sUN@y)
DkO
#Vv@4.CCDe~~*P<eʜ@_o.:qr\KN?@)=CB@NpV|kҋke2b @N&ZT@/>S@PR@bӎ@*y7B@Im
H"W.Ӻ?Iy@ ش؊@02mifbyA@F@jcW=@tozG@|0 @pa)4c@fM>ª>git@+"z`g@}+me7@yA=        ɢд	@"(@u>]N>@YLd        FT
nEjp@,}[m`CoQ        f&گ؁ʣZxWETN@)h~k%@hWv        +y)#^er@Hƴa@#z@Uj!@N@x9Czq@ĺ<}_mSB/@2 ~@M0p=ɾ@؉wb@(z@T`WhhPIuIȧHbyCB@:1]@OTG@Dt@էbjsz@>KHݖ^D
@ܽ4@bF<@{ [W+H>7@>PUHe@HT*@I~T@dv@ dyfzmyW|@fLGhgʆ@ J|!/	UTo8>/VbLHMD`@FIj]̦-KQ@.p~@        oqϥ@_֤Z@wxr= cB        *J$*A.Ml7ؤ@        s?(D~f@1ۏw-@R!l@ ̯        ,(7g @:Mp@̚@XAb@"dQ[@?_o@jJIx@S^<`dm^s(i@'%c@zw.RWg䢽uNm]E@/ڀF Fk̂u%Z[c;3E#:噷O.np@#rG@$]A١UH@.NJ	ձxJ&	{)чnx<@Y$O@yYA@.UZZnv(@DTXbSL\:2@)4-b7H.Ji$@tm*@ɮ'R@MV V @^@8&h@CoB89u@GroS@Rt@
z|kP@        ?+	DuQ@8bBfa@        Ř=l7e@ߒ@kmyQ@        wP@z@'M1\#@<ےQ=vD        6"@&p<@yx냼3{ ad@Ĳ(1cws@I&tv@XoJ@:C*[%@_@_'@`7@%[ L@58}23=@Z3ZZ\@]4T@8exVM:#b̹v@6@[1	@k-ԔR@- ScUW Ԑp@7)Pv922@2@h8	hI`SbVO ~JtNǗ-\~@Vzl1\IJT[@U'c-w=># Ўu@l06[D@9{7@+fw[;sO=]M=_)@ͲB1#5@:?j$ͪ@        !tp}D@1^@N/ʿԋM        .^qak.VDXL }L@        $+U
x@ (@#@wֶlJ`@d}@}V         p4<X'@	Nf @6KEe@2f@A=@)S?1@"A1]@ĩ+@<bB,s%XG}@=0^~@N9SIy{@KD^@_ctDQǍtQy@@/DY@|	+ow0f ұcdc@J%ղ@Sjh@:LO~Dp-p@z%UywT;je@H@K]@C#I0Ч'HQ񙒔 G@'5lvo@
ĥ@6nu5@vM@זc!2*U@5'@(ٝ`'˱vo"2@px.'@"6Ѓ@\~m+@^@~,Sl@Y;        /n>)㪘m72p@H<6@        5~T@hR@X)k@%        #ѥRdD6EĜx.~33@[}.F@        eQGd@W0},6iEOK(M/SK>;4ܝ5To@@1cFֱ@pf/B@Hik(~&Q@`-(U8|@} KO@3
cI@bkn)n䊫@
ҍ3+|UJrZ^ZO|@ǨD@$(;l@k>ĵ02RY+Qi^%x}mbd|^{`0 36Ku4wL9ܧYJ.BE-@<O@2ZyV(}3t@aAv@hƿ/@H)@){@Di@ϗ8bퟚ`@x2UtxO-@3<<q        47aCL] c@Or|L'a        
o@6NMm@@÷Ke        3:05@l0F@O,*K8:qAr@5ӛ;TqN SaR@        @%ûGNn&Ęgޙ9wbPڼ~coa{+܊a@as@CQt{@'Zؓ»F޵[Y@x2uJ@X@&b ZS@:ǐkҺɥ@kg@̲[o.inζ@|f!g@go{^@wz@]$D+@霎rq!ubg-qyK&ǿ.s@W!ȮB+yY@cEw(fl2@1@s@&bWaoJL@g}y@N$}Eaz@4#@2Mu@ٹ@,UDc{@Wc[| [NnoC@        V$!C@̦uM@        L\@Y@i3NF}        tS?@up R U@ÜM/u%[        <~xU'H@	@R5G0Dإ@#)Qv@Rtʒ@[N|#-@C@X5.	@O@;,P">@:@F"=Z	N@QQkB@Ա?6C	*% @ '@>G<@o@RlG@]+!@g)@ OFǫ@Hz;qdrܴ@!c@6y
^Jz{ˆ@&@Gc@r0@ɟHT@'nRսmO\}u\1I?V&1lFuVdo=iuϖ<{,(DHG,s{F(@ CY1@Vx6D\)"p@        DEE@;Eh zp1NX        }*ſZk1SzL~LO@        Kr#n[Dd@3 Ce@k@
罀@        8ڷh@_V_@h@-v=WA6NX@*qA@_DՖ@Ƕ9l@P@7Q/vwYA0[E!"Mdh@5@,$E	
SNG*1$@Qc{
@sGA@fʯ@	D@3CZas*M'r^@c8@Բ@E@9VUNH8}+"Uvl|@,d	tlyN@p%=@}^@A8K@9G\&6@eu@7%׳P:BA@MkRz@
Q@kg!@_@Չ; @IC)@^G?v"@        BD)zQ_@%@Y@        *4@[xX@3@?g{O\L        ݇d@QQ@Bs19@+ߴˍ Tm@        ۾*@Ы]NiTz_Yoʯi`wkʃƳ@{5, K@M*c *٩u@uJD@X7@@+iJMg$@`Tmho RҤ@ 	Q,@NΒ@b d@nf+jKWG٪5Ҹ&0IYj|NMr`1Xsh{0^`C@Z=4ERXo@ݔ@-eH@Ƣ?*ꬃ|TtzNE@.h\K\ꗒ@4i
@N3;>,fsEaw@W/)~a;
s@z=L\cS Zo@ob@ă{@ u@d(@ǊXiȵzP~^ z@%B@*T@<!>56 q쬛@        X&eeZI@,Eȡ`@        gocX܇ɲ@nGvSdt@        s*@9m׫@$*Qb@ek@8D@        be5L@BK@"uHAyFCI@sMB@̌ن~3ֈ@l@4dۚw(j2m@<-3@$Cs@W;MEm3dvg@C k\@qkʺ@+HiEǢZ@>h@HDuFxqYo6@%fz@V%E68{bNGt7a Da2@gYNϡ,oﲖ|Jʚ@q(A!
@iʍ@Y_=:@&VyȪ@\ҿoЏ[ @Geg5xg0(bђ@lՄl@g &@ Q@bcni/}Gϖ@h1@@kA(	@;l6~@        jo}@7fP@M>q\R@        O#w3/Fm@ uכ@iS        ($гEM]N3g2@m <ӣ@iJ&A@^<<R@O~?        9o$O|<TW@!L3ngۇr/<@wq
 i[Sm!n@f!P}{)@*.it@C@@[,@Ug@ q?1Ḋ?j,@!fH(xw2`(@h|j&}5ݣ`9_5@6ڍ<Wͬ@
[7˜8`y^j$;;@25a͐@@SC?9@H@x锆@(]mϾk*/@HȆ@e ۚš@,X-@H4@${-'{<@/͛0`@ija0oǪg(˅zt8 P0I{X%oY(@j>oU@Oon @	r         ĸ:r@<a='?,X5(        Qs @&;'C@n        cRW"Frz@W.@t1{BVx@~@        ?q:q BH@iJ@YBg@e<Q@b0-$Q5 T־V+@n6/WSM^Us~C3ˑkw@{!i@B@<T@O+Y)v6 Ϩ"E@}iu@KTǞɟc/r`MswAYM@muŪ@U@")ssN]1:o@M~FYn@Y3#@nTwA@I?`ҷ,ݘW_`
L*s@Φʱ@#qm@F@g 0߯bRkLy@C6Cp@0dID@FSE	y/@Gy_
@pY@N|gH@oҒ,)N@
@)_ճ-"8VT@         SG&b\o7w-@        %]@Х#;x@S v@uu        c6@/@#@u@=rcS@@        A[@56B7< ⵺FF);Oj<WmfNfdB@d׸::Q@@6Dq@Uhh}@CWE@{ڀ| v@T=@5n@~i@FFDp@ub?@РS>=Վ^c.FQm(GK&@etE@Rv`@Uw-m@I1
)Ә;@&yGMEV@eq@d5\@N]vЧ1@o2ɸ@@8WHu@yPG݃9ҵ@D޼@@iMa@Y=^@[G]i@	h>
mͨ@I=z+̈́@;V@U@        0Б(
\@7PQ@        {~ N:hS@&5Ati@        oJ@]y`@
?,#pI@I8SDGB}5@        <y9@Hʀ5-嘏Ż2SEL0
Nsd/Rw<8rQ@Ff<-@Fr4@8@kؐ@]YjK@:",&BA70@վ_N@}ɉb@z9)tEY[@G"7!߅D}A@;G@ru !q@	|r8[@PRIDKOIO5@|EKv;
@8Ea@ph<QPƸ v@Pj@)IdRҲEGC@8̸@3h@5M!"6@g̷@[kwo@#VR$
AJ@ZEue6|@",̎%u@^8޳        ^Zw@0Hz>QymkGu        9"@)jy'`z"Z{        k]N$Pp|iB!1N @`A`3@y9~G>D]ُ@         z<y/k:@ݓ7@gJA@/7QM71qH蕤	(Zڱ@S/Cy－l@=h`_DU@:>d@by@h@/aGtx7+j@Jéq@	@<'f(@u]>@?9\@=.su@f=@@ބk@"VL,U@0@Vt@ܕg*\?7@J@U/k;/Pj@*:	@;:*ȫg@UXRŦ	mnf]rF
5@5~[X(np3w)`>@LL@ImNb@`@ǗȽ        NЕB@{.b̑b@w}        z}5kht@@squ@        !н@%S$F@u[I@i7ø-Yk_@"@I5f@        5JG@$JR\y|Y@Dvy>}s@>)1Nũ,@}lOѵ@ tЉ@J:^C1ncn@RxdJӚӟͤ@O$B9c a@jY/qJI@\xitԐVy±biҷam`mc`A@\'i@uzgo:
@"Gn53^ju̮$	M94@0@[^]@"F%}UUb0k@|uߚ@3@y0&"&W`sFri@'gU@JCE@`G@񽄾@S;>@nWd^jY@%jZjKK@Vl"[4N7n@        i=O+2@C@        .ĩ>A@tң(@X0JA        'ն@Y+n@&/HD[[-]@4u/A-FMm@        <삇i@3z4k@̒KO}-rC	@3j5-@2s(g@Ie@O@g@mz:K@#-[IG(@rbm33Ma@߶WeO@z"]@1!FHO%ϡGr3m<IM8Vt֋HT*2*]҅r1pݢ ]@}#Dp3A@Pk@oq?̱ax@LC`Ole@Z@r:T]@8d-@w째@lU@EþP<w0sHI@C/r5'@A2_n@ b.g/ݜl#@_u@h<o*4Ev@")D@VlPݏ        p*L;@3 uYo6@@Ƽ        ڌoi@:VoAPP{@        k#J@CZi-ɤ-ᠤviXؼuqAB}@5Qj<        儼jF@̟ùS6@<EQ9v@ -	3v)Y<@@8\j2SHzLHuDXNSyEۀl@)࡯@ wذ,qj+m *@-pՑb|@rŪB8@nÃnoJ#@)rƘK@-S(@K7ƴ@?@%js@kߥI@7=@lU)@Z!F@AVGJt4Mc
-@!`@H @TSy{&1W2@&/:YhŰܴIJI/mi?Z@Ns@큶O	#:qyd'(s@GFV
 X*UU~P7@w^hԵs@        a&ԑay$]@Ezvu         ^tFfvX2m;kHt7`@        c@۞=@x(m;@<J@O@ N@Q        ep)~>b@&Ak@W@QgA@٬@X@X@KI
@QpCMՁtCA#'-@,plf a@R2$@$@)jS\.ƑtTJ$=?@u @[_zaUp0oyB5&?km֏<j*@39 ^do.)"OVB@u.=ћ@Xn@Q>&@/*
@ɾInCP-]=@l^2@sҶrɂ@Hf|@_7ui@`U+@-8(ذ@Ŕ9l{@Xf{2j2[mRh@1'q(ceHq,	$fv~@%@sPYlQG@hQÙ        '=~@oH2F@93UV        6y@sprv@:@r~/:h        em.ouQ(=%>C@>>e>#ǲGZ@%Ɨ        E@cOWz_!o6"wrr nu?@ǐ1M,|3QuӪ@wBB5QWjӴ@qOĊ@)tꈼ<8@b8V(X@* 朑@ɘv&;TGr@q=AȵСBG/L<]&ĈV&@%`}e鮾]3L@~Qg|١)ְ@sjR@4@؏%v@( jI~;p@N}:L/t@"@ք4O@\ƀͤ@k:1.@(}:`".T@lw@T@4>Ыs@m=}>1@ԮW@b[pC@F{          @ToqU9m&@f?@        pP@Lo@ɌXA=Z        *Wy⠵"|7j@5l{Q|yJ-':[K@        eR@S+@ 
qZ,]#ǂe}R2e4;xᣑx
"om(TD~O@]4k@Nȃ@gm@P_ˉħ';)r@1oyF	]/@ St04@E!?@oɅ.@U#=W)Ԩh}iabV˥aDDқX~K:>erC' ;@\^Ph_IA@r@/!@-M=@@"k$
?*7Z@]&ůG$`8@(-)<ȵ TJ@VA䙝@c<=9s΅ܧ9'@NzT!}]a@r+7wD	
\@;6߰@>>y՞Rm`@.Ɨx@i1        bb@uLϳ7@{S        JԪ<Kf$@a׋Fl@        ^J{@O7ƅ3@4x9*@U]M@-r{        c#@uBɧ13ϵK؏@#lj@O5Mf@:.X:DQI	Ň0OX^Q)Pݵ@z<}@0CtʽNZ@OYܦH׹b^@MgIqSo@mdΗD.>GMb@dDb@[:e/{R>K_@?if3zP #QSNF1@g74"e(@_	Su@9t=*e-:~]l\F@X@Aɜ@v t@-<Vh3L̫(+K
*fA}7Կ7@@@;@u@B}Mү@R# p        }t@7"@_K`,        ,X@.g&qkI{k        rD w<8Y|!=(@M_b!r@ý9Ff@jp@        QQm.Z /j@N?S@F-V@l9
"A
cmIz:jJwgs@ҭJ@Etư>DGYq5hyG@`FF7{>x@䯡q@^4o#j-n@+zeƗ@XcZӔ^ؘomۦ@_oj8s-@"1p@B%o$P)y6?#z%-u@i7LGOl@!-Dgč?JŢ@CT;xf#'y~@3CMCԐk@%ӌǏ$k ,2@w$.e@X`0r@lE@\{        <|5@O"kjTus@%         a:;Lk~>N@         Â;Kq@7A@u9@3۠@
@8nj        pԋ^J@-@zw%@ţ6@9@f	ewz)@8!,Mq,ٛ^%@lCs0ZuWHkau8@؂a3}V@~~7ظ҆cq,qÿ2O	p,Gw@A@qkuK%7n7*]@88}O#pe?G݈NrfQj@gC&VH#x@35,@Ԓ.+@Б!e@\=@
!8g-8aGw4lxdf@W<q@g$d̙G@לpL@q-@!5@^@"6h
_Z8ic/_7Ή
ۋ,[:ÜUd@7""[@07,¶@#(."@5([        Fրʫ@zG@&A"@F߰        
Q2DP&q@YQ@        :pu.R?6xO@	⪫+Z^D@aq        d@@,KނE.%p@r[@
mibp@	%&8N#ù>̴{ӟ@lT1jDxF5zi@Zy0@^.!EV"O@5Ǥ/;@S-@;gT$[K??&зH@wmt	@09Y@O}@@r/H[}muMm@pmtUΕ@n"@։GG-@mjҼ:@,Tס_!r]@4:@_p@7挕w=ay2!tjQM@6$ń@!@DFܟ@\Ѡ>Ujk
-V+Pr:z}@%_z@"4:Ŀg@j]@        5&@>Ȏ@6'tmX        9/A 
z]z@        g埽}H\/䈚!7@~;FA@b9q@Q)3G@        c]@ cus^@ @ylSO@[x:eA]E@u@@hX@Wwrx @5ҹ=L={"-P.@W~Eb*W.@*I2Yłκ1ws@	5o@Vn9l`P|{6):&<[׻~F@]X)	@=Y2@YDGg\q;ay@pB@J0 $@%>LP%F5NUhmI@ @1A|]r@E胻\@=9o΢7J@#@IBET@r	^@	x[@)4f@gWx,WlȞiҿ@yzz@P@        ZyGU`ƏS@"V8@        ^@g#@HP@`(0A;3 *`@        Z}ep@@ؠxزO@	Jd)q&i;@        }-*@N@?=]5fZr O"
@h!z"@v{ߦA@9
6@Zֺ@o'3`@Wsk Y䫕yx@	c^C@E'j@|y8Tּ4# *@Q@@c@D$=@U4wri NT+O@c?*1@l
X疧%@݋@,A|@ȸ)`y@t4Xv2@zD@9@S["o]@ɕmr@C@SMu~ⱓl9/"@A@;@ސ :;^M7A'露;WjmXVk@PSSK@,S=@܁@QZL        ˜D@@~os'6        *z
*+؜@7-x@        IhҴ@>	uh@h<\2r@0q@Gl        m`Hx,I@ST@:j	.wx@ui@Rߠ@*j$I"R}@p| :^~es^wlJ@n@ȐX+@#:)m(
y@:0fu{Rl@-u8@Fu9.ğT<Om^@$bdvԀ٥%1'@f8OVR4@"О1ctw@ TAq:)t<2@@X@&ݽAv!*5}rAp@S@@-@{co@Ytj@C*|@67@TY9	7S@epcKQ*@!cCҬ        ݄"61xi{@.~,c@        $d1@6]@"dA,Q/        :}Q@F5x@.DO?rg@@wɓQ*r@        >̖{A$NHp^I )CRc@o+QQua-0~1_{@>7*@4 ͻ@c [@1,>@ܑ8}<,;aI@aC!@sI  @3`slHg#@>\@5~u@(d@)ȫY@1zapiRUWo%d)ԋ@5?Z$!kE7
6S-@B 蘆@}7G@Vp@{Dɶ@t/H8s@x_D,g\{EHW|c2T6ii@@j@2"w@)YOh'@ƖLߠ@H @#j@{.68JC@BѠQCn@        A\>/'o@Dyeل?@        %Pe@x@G::8)q        \Ђ.6ɞ@~@SC@ݗ@[I1HC@        jF1/@G@C%;yAlɭ+F	uxn3@;K@3k̨@NB@ڐ<p|@\7^}L@s@YC9a鵘_43@<ك0g@OG@Ǫ;wpr/@tcaqbd5{D@S <D/tZǯ
_aO++H@8^w]t	ZRDH?XEd:2M@u0@%8%@ͩv1@.pގG@DsyQ@/O?@.,@A?h@nW
?n@eF@ѝ&VuQ@$RS	P.h5@˧	K        eDC!-ʂ@ ߼@        @;ĕ@ҋBA.Yy~u        >|*QvP@j</}@7Բ*hUS0@        N[L*@#j9@lIBNz&k}.ٜI^g}!7@0{c@d@oǀqb9[@lhp4@>z-@7S~@CDu?6h躦@`lr/<+FibcHr'Bch[ޱ@~~4j@9]4v-@1oA:ƀS!@cJ'@	9H@.k+@Vy==kE<nTM*i@@h1@0ӹ
@Ff˫ʲG@S9Bh-w@?[@C1|@Ǿ֩@j@V@YkL}@ʸ'A@b; A@        @xۙX6+o: @rtC@        C	L@F[@>ZA#@kK@        eW@yJ"@za V@>$#{c{@        v:R $@֐UatT
JԵ%;'2d>cl?f{e^BQ}@th	ۿ@qz@"@HM<6}?ȫ@^zQҚOTF@0ݼ@DU@ t*&Lui1;DM@rD@իw@S6{6@45C/#kcqcNy@h:@( A0Ҳ@2J&@4@%Ky@\w57u	{@gjNd@o@q9En+$6`WD@JcAzsҵsQN@A%>D27ټ}-R@$@d2u@T3tg@
vjahNQ5@?'9KG !? -@Br/2z@         `	r@^@|sg9        #Sk15a	JM9w@        ;/@:G &@L_|uG@B7(@x&=@nT        R@e(@cOY@*ui@=4e@}
@o:@w;r@mh
'@(ș|!CV@\݋L؍@d@@2?+	@dS:{*[Hq@)jyEjw+@*p9ڤB* s@"U|9FOA[@ϢQ.r@{7"Pl4bŒBk)B@ؽ*8Od*%4ihU1@	?n:{Z/@߬k@@n@u4Y@W@^$݀#@.ze㊺;8@$a@hg(NMkWG@[e)0@h@|XQĎ|B{ON_@PU4 ZAKGIo@        ]*J@>Hg ,@        gr1=J@"3@y-bD~        ]:	󊢬@$#@ZnG@q7JzM+@        }[eRA|n!@x?@<!C(@I;9lPk*d@(VU<V<Z3״43@+Az@/W@ߟ@1{>W@`Di@ᑝw e81j@]p$&v@~y@ٳZ@[foh@%@i2vhFQ@_@"Qr4@bbW貝U{@&fg@:9:@ p0@ͅ`@͒Ǚ@¿ @m`v.+,N@	rSjAH@PnJ(3()}[6@O?*=@REW8@i-3J@wѮ>c@" `f0LFi@ǁps@        I;%@֌j^y@        4'sv@@7͗@mfbQ        JD@tT܉fRmHtj2{m˨WW
I          Yҵ@MCq_I"F7@Ug~@X)ej@COW3@#9s6g@uU8@]V(ş@ᬆ~@7Gz@]'@<?V@Dj&E̮@Le<jpO@TjCo%p;Ҫrsr)oxJ'@7@)g-d3}@n6?8٤>2zT@J@O[h@Mm2Pj{ﳝ!mD45J@R*~~:CY@|`T@3/2@Yaˠ@SW٦@?\;@JJ6'٫@5g3@V}$ @Fj_^@"~N@\ x)H-T@S@O`6@S̻        94I,h@~E@:i        #1@<J(@AiDVj@rU4s        G`x@(,8zz2=ݢYXfFaԵ        O&@J.Cˤ~cmٲ	: w`sT#-vG[#FόT@_F\ݜ@@cĽ@&a8@)feHf!¯@!?4@`3@P@Eߖh
(h[@ @cO@y@Xgs@`߂o@*^,	]@~*" 8A@S<dD)C|Fq@^xÍsS	@!>l^@Xx@	w@U @l
:ſR4 
ڞdѾk0f>gl̾qd5!@C~5>8?>.JrT>kl?}q;ް @8AUF臔pVb]@    .AQ\yoT$"?n@Ip;loBW%@        O)IRthɾ@Zrm鑻 '        $W>%s>}Tt"#ZW"9b@JSF}u@t>Re        >}X\ײ@_X&@5;Hu!A@Xsk@X'K@~uijA.xn@إg)@G«@VqE [q}`RB@ @iA+؃:=(wO+Q9 p@f|qٌa7`@C7@vWˆ@q@\f@]#uR牒v@lZ@nluA4z@@nt+쮘|Be \,@a #@#=(@l|ӹ@[ўsFmϨENNw@H#g-|^"&nF@NŞX1xpU$yGWd
 ޠ
.@֎ͫ0d@@iBx=qW4wn@        \C@xZ$qu~ANd        +-RO*){#"ʲ3V@        	*8瘴H@lge@+J|d^@ 2`@2V@        |MCOz(@$Fҁ@3!IF@[>@$gnm@ܨe~R@y*@ӧ$@dqFIt@:uფ*$Ή}@_!mP@N =}(ٛ@WƑ@
ۀT쐾_@}mW04};x@e!	0@Ks@d.|Mٲ@/!pi[05uT]ZSC@|nԅ&	A@_}e@M`\7* Δ)6@76@|[ZW}tN5@=_F t{I܇@6z(*X'ei;@<pF@-sY<B̄7BXcYY@5̈́ q)@aq@U        @+/5[@`y@Y+ds        {TZ&ВSMv@        Bc@b^.@K<~@BWrCpx@FDaB(        wGVe@,d@`c@zFE@Gۤ --@br@cf	R@{@)G-.*ys3@ΕI@=_L!3~[GP@Z$cxh6x@}M%.⚓Sv>^/I@6>rm)@XK@cUGka?}ۈ@̚@i{@W%T	@>>,&SO7b+U>__t@%A@qF@C]NBͦ@y1ɴy	C/?Dk.@q=ֳDwO/3)@"ߘAĖ@k#>@k:Sb@uEr@OiIͽxNVH$[!@=nIS@        <!iT,h"0>N#ڬ@         X⫀|@ʧ$m	p@        N@P@6={%e@.F@;Hloܠ@        [_gr@Y7>@DDL4x1J?kt*.rh]|5@@dr@vj"#4ͩ@B܄ O#T}i\1c[@׉%O DJ
QifYӕ@0uۻ@Bk@v@yjh4dsmu5$K6؎@t@֑z 3dљ@t@=p Xhnd)@TnL@N!؀٫^pܵմ@Gǣ@yLj(յ@@?E6J=@ݠ7dR3`@@?@"	C޺@T#@Dzݻ@
+w@GQ@d_{lK{wae@W@"]g        AJajunyCy㘔t@F#@        O=U.&@0@ȌiY        iwB@Տ@]4Zt h@Bh@I_0#@        G@ygvr]r&Fj菳p@D`G!@Ρ| ~'`@UjN@{8@׳XZ@	x7v?﬩͌J+@cA)Q3@_e(@wCzZgǿܛ>T>lr"<>(:Y@?<[>|E#fL>s	0?_>>KhFo}@KBAZy ;>&|k>b?7^>tu){>/t@5z̰g=_>Z9>׭>Ѿs>viъ#yFTgIRO_o?2rx`$?LOt\Iusa@>        Z@>n>2\qO4+D    .A"ƽ -|G	PEh&T0y[3        ;O{nz	*?(RP??R?2.ܾ         <2FS'07sx>RvV?`fM>N A'_?K"@/?5i3Ul>jLp==9*SؾKq}#N}
i>][ѾA޻frξ&_"dnJ&GZs<MP*VIo9@:&rkbǤ2CJ7r~AFi1@ޝ&1JH(@SE^viY[h@O<#@
4ڦ@?3b.@%l@W~18{L~S@:L@n{J@	H@G~A@J/@hf@Ș_@Dti4P@@@%8}@{.e*/.xp9@ j[H.')D@A@I(        ~z*M~J2_@hc@        f"@Tf9u@§A\{~s        }˸;좹թ:DǽL'-nJ@3xyҋs'1@        Xlc@H.ԡH-F+1+kS'gLEKg1v_^s@.P@f=IJE@3r9]@+I5bay@VC'`@H@,@%@+ߟu@
k&@*'r@ו",@ھ@Uf@{,-+m+9q@V޿@Fͼ	p6@]	,@
[P@@Dŷ@(7@'nl@#&M#@$@lɤ@jʌ@F֑|vޜIߛ'o9̈́ ƞ;"0u̒jPZC=b|m촋{@jF9Út@<\^J>ɋ@        $Ǎ[X@\@\UAw!g-        q0bJu	Ϫ&ha@        loܥN!@.@"|>t{9@P?t@ي        ѾL([߄c@hQU@$|ȸ@WA
d,@h#@UjYb3@e0'@Tfh@V`?I.Jޕ),Ef@c@?@<9@ߍ/_A&.g)il@E`ܦR?@!5w@^]-F@z>S@)@^^~?gx@'_%@UаYy<h@E@MX@P@gr@hİFV_w@t@VA{h o5*Cբvų%VoN)Ga}wox$Ǣuj{@[BF/P4lz@ϟ>n@qŬ@>!
	ΨD=@        O&@垦	a7@`DXc9        %ZwĖ|=	,6S@        ==/@re@:a
@jHU@|ީ@ǯ(2@ Rwr        [vA!ɶRA@c@>@u.A@HEal.r@1h`@iЄ@ relM,5/}p9hKBy"@\/Ӱ@ה;R%@"X~@kYj A61l7;!|HjBQP@W0ͽ*6tE/B۴^y,̨Цs@EiuSDf|@g=ļ?HlQ/b@Vڐ@z04qs]u}h.U+1%)Ukw@#'ȧ@'@lPd@IE`@2N@m@@4N@ Om?@S@l"ST:@_Ka	k'@@3Y>X38.T%>^;\@        FO!>RU@|?f@        ]&@3L	@$@=׿FhD        ҎHV$%:w@gx~8NQ"lҸ@	[TTNβ@        %gT@c#l*19Y*8q58}J5-:to⁆znf@}	?@jfx@;iI@ H$c}2@C9%YM@`5g@ۤ@e)6jeP5I|@6b a4ږ({z6@oah4?f@>uK{@}%r!C@ﺹ,1w@Aym]ׅ&@a9y# A@P[ CD@@8AY@  @PA-,mlAB@1̛@@s@z8*@3ݮ5<J@[8@0AY"A7-шԢ@ŵ)A3}w$7?i-+W        D.䩯c A}O9{@        ;$@_Y~@ޱrcA6g    .A9"ZS힎*V#A3@di@ϘH;%?VMw/?        ,?b8ݏ@}f@_`L,`@跞V	U7ʤ@ι';B^M@9,<Wx@pũ@bFzW3VW@H|r@0o*]̠@nNF<>dZu<}|Vd#%Leޡ@dn+^;P}OϬ
);@kX-e>!EѪ+@j@s<s--׍@+,.@e[@ Ko@	Hp~@-?}EԔGAbՆ@U9]@N}Ց@6؋& 9#@x(G@c/zfK@d?Q        "Lb+v;k@YH@        bΙTR4@zϮ@i!@K^h        N(/	z&L!/h@]fKXwQ@宁t@$`a@        @+!dilnSZ)Ѭ@P:;{UTJ~K]0SLM@m8Gda'̟@^\~`6{+f@U;R@c]s@vIx@M|@@iqsm@"P3kl@fv@L|@M-5[@b0Oݽ@3b!{>@Ō`GQs@(:@<E]h8;sp@9/l@9d@]P@NA8|h*@`pİ"#UH죱P%
@Jk*Sۄ0>A@kh@on	'@M0q@d$zcB${F@'/[GWp-3"@        A0@1@E#B<>R~        ^D'f E~XApzo@        4Զ`=@"	@!)Py1@b9/0@5wn        CeT>*F@P^N@ݢ@{@Rw@}`_YT@E{@Sz@k\$y`6?іʲ@ыeϤ^@PPZx[?Mɺg)Ę)S3Sl/Vr@H/Ԝ@4%-v\iA?7K^.>3@%aݑ"TV%+@(C}ʕ) u@0Q?@/e/nyj\]a])$Eut"K{]1ˤH@-e\@3ȕ׶@*0@v U	@!$@EAeg@y;-@[@kL\ZӤ@?n5Sw@'M        BF@Rn@        R8Z@7@.|A
WY@        _u@H=b֏
0@|AΛYj.L_@        ޤW@X%>R7ۤjH&ࢾ3Qp	p.:\7`m9p"l^@{@FF6@4*'$jdn f^@w7[@vf	@w'`@Y _0mгN @zjfǆɖm?;X	Fmd+@ohy@ONHw@*Q5y>ax,@.&@\/F$)D?@Yݲ}8BVي<[Z4z@tB"3@A"f@)=CһBwR@U,WSe@d0@zx)@YҭoF@ӥc@X @%zlPYP@&wP@n0@s=        vj. b0Mf.@4Z#>@        ϺH%@buh@Z3	A]wPB        sK@e^W0@X9NzokGc"@        9'Aєid=73lr<*)+1<-@IЋm±<:@iR%@-y:5H? <8@?#ǧ@0@%#@JDbs*SW	1@~&:B$@avz@9g@]`mAxe]v'JƑ^.@*Pi	@c%@Yᶲ7h@HX<Jv9Yfȶ@Hi@(fӱa@`>kUvKIڬkMtB1!{^Ѵ@YI8\9Q}܅@OYLXZc@5"#.e'@1~f@        Z$w@/U@O8)        =SzY|!# Q~@        )~9+T@6kڋ@BMh8@T4@3<        )>ـ@/Z֣g@AFq@Tc6A谙%@IRzh 5@M.h_.@yʡ@YDڇ4sTe>/n~\PkMĀ@r9TH@[TQDձ@C}%hzD:NOgL8U{TG*t@p-!*sj}h|oA,Vϟ3@\u	Mrf;{or@7Ee|wzE
@ѝ_#@g9.xOwJt@GlĹ@sS@c2łL>0gFg@d@PNa@|Jc@
U5"fi@14Ug@WA>O=@E|ġjȽ%o#E@        JؼX	u@:@Ic@        ͇E@ƨN7$@k@~@q        *:@6x@8-~.@n)w([        B}#@lLsWD#z̼pܣ߾G`@Y#;ĥ݆@LM0)#$Ҵ@i5p@h@I?Z ؇)@^K!256pۅ@/G2@ :@ey,@n1!UTBYݮB0,Ggwp܎*.@AO]RY_@"h@?8 0@A%2|@Z@h^@ߴg@oX@!,;@S@?y˳@Cy@TFڎ@ڷ?@`,b}@dWzF@;˥0@O\@sm~֪N/pƖSN-e @>C>@gb@blsL`%W.@ltb#        HWZ@q}u<A65@Ӫ	        VO0dTC)@zi1!d@        0szK
A=y@WܦOb?b~8N #@ԝ/@        EE@'	P@:?; :@`}Cgش@8XPsj@l!QtΕiۜ|@(V0Hw5@ZȺ@T5@azöŦ&gQR<<rz@̽)AgT@+GPV@JeҚeAZTXB 0``V܁@Mʗtu1HWX<@]run3RxSj?`M@F*`	;m@Kqǔĸ7^$57G@Q$_@@/@5V6gA󛬚Lʾ>r1_> t>NtUL@oe@;oLb!hA{UuAGpѽA`[	P@DQӽ&]j@֬zmO֬?        F.~F]55"#Ai|-n@        VyE@>%J@H|(ADTN{        j+` 
U6	@⮉C\#UR	D.    .A®%vA d@s%P1cU'S+Ճ:bn9eM|xWz @;@Zd@@lx@X
 kQ掝X@LeLA@45úm|@@dt8:@.<	#-@?L,@Ҏ-G	@vunV@Uk{kWj@'Y@xc@t@ai@١Cں
[sV@;I%Vg1R@%4)@'.=@&*ʴŋ[!$8(	ʺ@"|c&0@33ʫ@E2kjˌaѣlhB~b#jRl@>>xZ	$C@5cE',.XN@        ._j(@>&od/$c]-GN        _n) "ͽU,C}(+l\        iꮋ=k!@FY}8+{Q@c,@@O2
@        Hd ;S`Ø@_@!#%@\ۥAG@Q~shZ@߀`Gc*@^)4
b\EjIꞮ2҅s@iBQ@>ȈZǞn!YeH|¶!ԸIo+2{@hWG^@GU@OΝ@EX@Wۺ@e3"
N#gps@@uIL{e5 @c.@C	y@?U9L @QW&@k'+Z@r_.]@o.@ 1cvO.Ugi~10ATx-o+(Z>
Wpw@pI<ab@cJu?I@b[@BD)hU½@.JL_(        H@.2I@gбB        z3Y训1QNvY9{1u@        PZ@؍v	@!rwi@HO^~@Uba@%Ȯ        ^䒃6s@I9@]A3)@P}@A@=J0@pN=ͨ1Xzh-y2(^J7.@';@Z@FZ
	@\}gfV.197@)D!]r7 tRz;@z.@@v]VB@֐@(e@QgĦ]@1@w獞Ĵ@@v@F:?ݖ!*.@rL+HB@?m@sdGbRf8M]W96OI2E:%CקUq!@paw(;Ŝ`kqpa,@cyhȕ@&P4GFI@7DÆՒ%@e$haPBm@        nqm@k7Ψ@5'Rzzq&l        QSb MԗS(J,yXYM83z@        e.@''g@g8bJ@^5
}@Yu@q        'kjZ@&'%@~9ȸ@R'i@4A1@g8@ޙV
@W@cp,SLIlN«>@zQa!B@<Jz@QL<6ڀaYG#f{|o4D$Ւ	sO|@R-msk_;9T!@o)6ނ@xL|sSfN(@[GAV]ԴX~'>D@,0{@|bg.:G@@Yv@r] E(ezJ41@:͢@@:4)j h|@ӳ/"I8>D@,VYp.@@1*m-@(~@M7@`#z}Κ@;zM@ae>l8dv@        h& E6;[.@{o@        
)@x.a@@F4Yj         @e¸@9Xun!>@nJZƿxI-ƃeN@        V_}@N
ӹOc:ȍ%Аt8{3y{oh)Ձ@^ gq
@2r͗sErڊ@9i2]¿@,b@yi!Mߪ@&A2A7E@pW|@6,6@f'v@#wOCt@>MdSL=EEx~ѣ҅ ]!t@5xjɪ@w@ٷBMa#%@6iXH88@"D@$ؒ @*~@N_V2ωU@݁|zkDx@~@"?; @9Ђ?5uU!@(.|@k禿k;ޢ>@q@ߥ@z!IdB@k=@w^0Nǣ=d@GeDy        )D(ʎ/Zc@e,@        >p9@{y][@NV@e        wO0G`a6ɵ~	H`>RGrk@        dp@Cc2㲳@**ZpǪVMkYqZBʌ$\9֫՟@<N|*`@<@r<r@(}@FjHOBZ@Πb!2Bρ@P:@	d@Esb[b5@q>n93oov}7hN@l%o.@QH(eN@}#V1cY O'@r@Ni&hYQ8@CԴ@霗8@qRH}M<ݙD`Ƿ@gZ@ߦEx@9>Ǳ:\g_#Aj@X먅@\Oޮ@ 'DA@:Lg)@,p'@`?eB8nl@f5D@n_6!åy@        BNr	圧8?x@LFV@        tr I@d˲@f1@~l0aM        ?P
2@>ʜ@5>`g@ԝ3Ш&kI@        伎ָ@<f`@wCOL[|=WdZ:=h@\8]@N4d@ު@9Ub@Hϲ(@w[\Xƒ@7H_@^r@!Po@pQٴ@C:Vu|Lf3`tG>j;mKWxի@@BFY|@EȘ7<P@'='\ٰ@g_5Yl;KYzG>$FT2yIٜq٢~칶@5-o@rmΖ'"Ū*iYzvPȷ@u@Ǻ@liS{D@gJJ)@O#{Ƕ@}]3<1@OT        O)@%!D@a        Oj盳]>5ו@u@fo@        (\@ޡuNFyXsazy)h@J@}u        ~w=T@Xd:ԟh{HN}pk@.OvL8=&ä!xĚCɲP-/)@&@;3,8Lg`fc @Ek@8T@*nB2Xvx.$M@{¬"@e%>yg@跈D@b.:dяw&ksg@'9Jg@fDN@C*@Q;ii@Y|: ?@S3Qpb@{*}A;@"\ʹK\8-zs]@F:ȹ^@{e@qM2P@EZ`ѐBv!,@)Ę+wř	?@
K@Zz@yՌ#Zxk@@ѓ        ."B?@d@+\u@i<~        frØ5{.bNPrq@        @Y@ܧ@	G?@Zle-' (@Vt        րX*7ұ@"VG@Pv@ \@BҶ f@L Ξ\@!'@Oœk(FUDm:*r11Ӌ-F/:@yL@m\V\ϔ@|2Ip@щq}g!Ҩl	OB]'`2 $=)@>@tN0@[@Skw<@zϷPΫo?]1@C}h;6o@Jv@WW@HX*?gX

@mDӜ'AyjN@'@@Ä}<@9_
iNRBMWxn*/ @saN)@cvHj*)9Yk;?ݹFW }@Sf։?A%I=0)q@nhZ@        lPh@a@ҤWSX        I
@a֏N&Yz        zqY#)ϴ
AwZu@y|@Qi@yAT        M5 Dw~ɠ̞ߙgG0@"3@@HAճ(*+%@=cFvh8 @py	a`F@lqDì1zex͚?j@x|HI@KW|=@Xǀ1,.֮3q/t޳7Pk@O\w(zZ
rtw@f%cQܦsݹOX*p$XZ2Q[6/Z@Nm(:@	?^eo@|ͺ@THbQ@ğ]C*ZoW@?b@axЍ@\@]g@@p@+?Fch@Vd@BCQ5ꉜҐ(3@SQ@ӄ۫@*6hQ>"[uЋ@bCV=@$pbn\܎a@@        grrf"x'&mͥ,͸@        O&@7|@.M@E/=P        SKpȽmGҪ@U+R@k]|p@qX[a||@        98}i@r/ε<@Q+~o.@ઈK9g6kN0NM|RM3a@^?A@m9kg7ҟfl|{@<@Ъ@xPD[@7鈠xa~m/@}7@OC?@'Tܿeۯh@f1p%@B悌@S"󌜄@hIn@u;`(o'T#Ģ@W#~A@]x2@I:@F
Z@/HhqV@pñ@{4<jrt@\@0[=@Jͥu10q V@Qʁ@5_2ոv@m{WH@8~#ݬ@N !fQ@ߞR5 @?$@2%hΆ)>*w10@        1=aaABN6!jC@        s1@D@UQ.S~m        2(x@3?W@lJUQ4:]odHř@        s3z6@pm@Kw7@Ntq-Mܣ
gQZS@
$D@HDP{ee?=	za䤇^@'Eu@rtSq[~v@Ț1=&iΒ@8,8QJ2Ar@30/&qI@r֫h@o09@=]\˓@<J/8	@&>TɖDim@j!Kh@@@u@O@͛:\)+@(@qz0\ި@o6!m@ޔj	@jX<8d@vkg0}@0|Q+W@D2R,60@gUA@=sVF@ {)_@3@خð@)\@2LRrHP@        ;|MVF 42@C?T@        D'/>-ň@4+@R^;~%n        +?y S>&fUx}Pi1@i_%ܱzJ@        ہQ~%
1@S ))mZ@st9`2QG_4@xJPې@t0vr5[T6h@@htw{e@}܏z>TP@auq@k	f@NlΤ@ݘ@UD@@m)ԏm@|4=@;ƣ_帷J@pVzD@ek@é3@@QCT@	@^@xdҰ@`F	#V@~sHb@_uNIb:uN.%O@8tdI*@|\)@J
^?]aT>;GhJr>MYP@ML?a6A@        Bt@_.@/8        61@pˏ.,`        	g`MX&-@ EY>i@[E~Ǯ@JsI        YP	;^@Uoj@ۢf@voC*a@E0;@?u@PaȽ@Ϫ)ݢ@Ǡ&-nXI@Di޻٢@܆4L@bz@)p8}_,>lr@QJ+@f0!!`jkpk@ʤcf+vuveh@w?]b7C@@XB@Ewx~@dwv@ x@Rt̻kN-MiB+!/@Eֈ@.M-F+[@B.x	b@q`@M|@UY]YQcB٤	&ԑ#@0B@|@k-9d^@y@ˠt        J'@b7B@3[v        U:suA_J+Dd@        s@SZ9k@DG@L)cW@RwA@^@        oBK#(@JϹ@?g/@ysX@%(M@ڢ&t  jZܩSk@D^ݥ(Ԃ^dMM-Af'b
(5@EeQ_RY|@5Ah
bStD+iku@g^Wqh @I@CPo@E`@G@[ E;|ڂ@iUޅ_@$V`@	SК@z]@ʃq@z~
P ^R@W=@@-Ee҈&@ech(mF<])S%=@5}뉲(9ږٰ@w@HW
,=pP`)/	GʫhJGj@|u̇qF@        g%@aN@չbi)H,A        >kR@KZnV@        ؿ@JQu#@'f@f@ۯAk@b*O        8^xW>0@s-@)My@N~@2R@k_Am@+&RU?@a)}@vą@x%r=- @nm@_f@@B-ܑа0F]xXĎ/OqirGLx@-!C#k}kC}mql/j~&aBE*fR@6Xit@^qCNȽ@KpP.7
BЅ@8n +@.z@cTB@R@}s}qһK
@Ϭ@K<@M]@k@1%@;ۘ9C3G@=4@%_@{g:l@,^@%-ï苿@V[@SǠJsr@        e&axgwNP@S @        !$@yq@'a]@        =\&;V{=sZqt^S8@Pȴ%߱35(@        h@ ͗@B"̩>[xnn{[D2O嬚a@uVͣy@;c@[SBI~h m"7BMơPz@k@㱛@sTk@aNw*a@	@_Dy@rqQ@]IƢ@3$FB~_2@N]@$:sBW@'@T{F@<Y@-%>@6#Q!@Al@6Ŷ@
^O@B7Ywi>ںԟ'!}YՊp_@(Pά,E12'@NRk6+ؙCO- z\xe@zVÏX'	|@0@+ňvÖέT@        +t@O@$7_4         ]BLz
ػx{ Qp@        ٷCݩ@Xg@{8@[XQ&M
\A@0@}7)c        a]K8`*Y@0V,@}@{l@!LBG@KL@@G?tLUkͪt@iYE&NA@n:`@@ݿ@`%8n@{=qdN$6F)m@L&"-^ۋ)
Kz|"W@RJ/ DG@oWmd@*~S٢9TZؕ *)n#d02M`c!a@4qt.߯R@
 :mk@hiP@Iij@Z@2@߼?/`!gڏ@MӘjTCU@m4T`}[@Z 6@粯@^pΡ@Vq:@{7g@O?Mz        UenKo0`E@#uF2@        >v)G@'uf@EL@@        iN@{/K@F;W{xP;FDO66@        :G%@@A:@\=z]/ԬYVN{i|1gW?Yn,Gu+\@qt wosŖ@NT@)R~*@ +S@ziG &$2nףy@B
=%@S%H@)5dR@,;@VrkJ+=Cv^ľF@B}\@b2k@I_HJ붖n7@6޷|[^iS/k@@8@XM|@O/12f#]RF\@4'I@Ks+@"f!@n;5@U]cKE@'*w@+?</~r}@P@RlC;G@bG,,@B]Hgzgs'@۠k@         ٰǞQjx@/UvT`؛@        Q9@T=̠4Q@wn?l&f        xԢ`/@JuƜy@i])G@&T)Wr@        }2)-փ -@<CӉdQŌz@8Ȱd^Pjy.m|788Ƙ_"ژRq@2@U A1`|35|~]jw@!Oa@<@_^v@BI[@$)]˴^L@CK@;lnF@}$@C^mF@_db
h%m@#qc,@	p$zƽ&@-o0@LV@ކǥ-@	xx>m:.Qvck#E@O$̱@1Y@ITOBv@K#_^뎆؝Ql-@q*~4ǩCv@L}?AO@{@6lcnEmH7>lzgχ@RpG>@        yp+uu\@wAg9E|        Y㄁0vC&3@~Mӳdn@        u!wA@k @I@9y@=@J$9ӾK        $gJtt}S-@  PNq@*5@\g@tp֋q@#D@KU@wd^)xf˿@mT:$@cO{^;u@$Q@^z
@ ^2@A\_x[)ôt@8dvfZ@["J@)TM;bx@@Ϣ@kARGR(I@&$Y@vZZ@4QeKrx0dI#ΩاZ#]8'@1}I@\
@WB;ڢePw}"\κ
ɖv~@ o)bGFaQϛbC!63oͦWS0@XpӭN@KuQr@z        O}@?@88HJ        mO2Lh^<|;_@        ^p8:\ۚ/{?.aj@c/#@@Lđ0        A1c=Tw-@{5@JR@B@Ddx@t9y@@U\蘷[(s@*G̰J	Ucqk8P@j?/=!Y?@l͉rtn@7yRǙ	SY;s$`
#
38 0
14 0
19 0
66 0
60 0
50 0
67 0
16 0
69 0
8 0
4 0
73 0
40 0
64 0
10 0
20 0
62 0
11 0
18 0
21 0
7 0
39 0
49 0
35 0
33 0
12 0
5 0
22 0
55 0
9 0
17 0
65 0
25 0
63 0
28 0
41 0
70 0
51 0
-1 -1
56 0
72 0
68 0
27 0
-1 -1
45 0
52 0
46 0
15 0
-1 -1
24 0
34 0
58 0
42 0
61 0
1 0
30 0
-1 -1
44 0
3 0
26 0
32 0
37 0
47 0
53 0
57 0
54 0
0 0
13 0
29 0
31 0
59 0
71 0
36 0
43 0
2 0
23 0
48 0
6 0
#
BEGIN_CFG
 Size
    128
 Supercell
    1.4080000000000000e+01 0.0000000000000000e+00 0.0000000000000000e+00
    0.0000000000000000e+00 1.4080000000000000e+01 0.0000000000000000e+00
    0.0000000000000000e+00 0.0000000000000000e+00 1.4080000000000000e+01
 AtomData:  id type       cartes_x      cartes_y      cartes_z           fx          fy          fz
    1 0  0.0000000000000000e+00 0.0000000000000000e+00 0.0000000000000000e+00  -9.9999999999999995e-07 -0.0000000000000000e+00 -9.9999999999999995e-07
    2 0  1.7600000000000000e+00 1.7600000000000000e+00 1.7600000000000000e+00  -9.9999999999999995e-07 1.9999999999999999e-06 9.9999999999999995e-07
    3 0  0.0000000000000000e+00 0.0000000000000000e+00 3.5200000000000000e+00  -9.9999999999999995e-07 0.0000000000000000e+00 1.9999999999999999e-06
    4 0  1.7600000000000000e+00 1.7600000000000000e+00 5.2800000000000002e+00  -9.9999999999999995e-07 9.9999999999999995e-07 1.9999999999999999e-06
    5 0  0.0000000000000000e+00 0.0000000000000000e+00 7.0400000000000000e+00  -9.9999999999999995e-07 -0.0000000000000000e+00 9.9999999999999995e-07
    6 0  1.7600000000000000e+00 1.7600000000000000e+00 8.8000000000000007e+00  -9.9999999999999995e-07 9.9999999999999995e-07 -0.0000000000000000e+00
    7 0  0.0000000000000000e+00 0.0000000000000000e+00 1.0560000000000000e+01  -0.0000000000000000e+00 -0.0000000000000000e+00 -1.9999999999999999e-06
    8 0  1.7600000000000000e+00 1.7600000000000000e+00 1.2320000000000000e+01  -9.9999999999999995e-07 9.9999999999999995e-07 -3.0000000000000001e-06
    9 0  0.0000000000000000e+00 3.5200000000000000e+00 0.0000000000000000e+00  -9.9999999999999995e-07 1.9999999999999999e-06 -0.0000000000000000e+00
    10 0  1.7600000000000000e+00 5.2800000000000002e+00 1.7600000000000000e+00  -9.9999999999999995e-07 9.9999999999999995e-07 9.9999999999999995e-07
    11 0  0.0000000000000000e+00 3.5200000000000000e+00 3.5200000000000000e+00  -9.9999999999999995e-07 1.9999999999999999e-06 9.9999999999999995e-07
    12 0  1.7600000000000000e+00 5.2800000000000002e+00 5.2800000000000002e+00  -0.0000000000000000e+00 9.9999999999999995e-07 1.9999999999999999e-06
    13 0  0.0000000000000000e+00 3.5200000000000000e+00 7.0400000000000000e+00  -0.0000000000000000e+00 1.9999999999999999e-06 9.9999999999999995e-07
    14 0  1.7600000000000000e+00 5.2800000000000002e+00 8.8000000000000007e+00  -0.0000000000000000e+00 9.9999999999999995e-07 -9.9999999999999995e-07
    15 0  0.0000000000000000e+00 3.5200000000000000e+00 1.0560000000000000e+01  -0.0000000000000000e+00 9.9999999999999995e-07 -1.9999999999999999e-06
    16 0  1.7600000000000000e+00 5.2800000000000002e+00 1.2320000000000000e+01  -9.9999999999999995e-07 9.9999999999999995e-07 -1.9999999999999999e-06
    17 0  0.0000000000000000e+00 7.0400000000000000e+00 0.0000000000000000e+00  -9.9999999999999995e-07 -0.0000000000000000e+00 -9.9999999999999995e-07
    18 0  1.7600000000000000e+00 8.8000000000000007e+00 1.7600000000000000e+00  -0.0000000000000000e+00 -9.9999999999999995e-07 9.9999999999999995e-07
    19 0  0.0000000000000000e+00 7.0400000000000000e+00 3.5200000000000000e+00  -9.9999999999999995e-07 -0.0000000000000000e+00 1.9999999999999999e-06
    20 0  1.7600000000000000e+00 8.8000000000000007e+00 5.2800000000000002e+00  -0.0000000000000000e+00 -9.9999999999999995e-07 1.9999999999999999e-06
    21 0  0.0000000000000000e+00 7.0400000000000000e+00 7.0400000000000000e+00  -0.0000000000000000e+00 0.0000000000000000e+00 9.9999999999999995e-07
    22 0  1.7600000000000000e+00 8.8000000000000007e+00 8.8000000000000007e+00  0.0000000000000000e+00 -9.9999999999999995e-07 -9.9999999999999995e-07
    23 0  0.0000000000000000e+00 7.0400000000000000e+00 1.0560000000000000e+01  -9.9999999999999995e-07 -0.0000000000000000e+00 -1.9999999999999999e-06
    24 0  1.7600000000000000e+00 8.8000000000000007e+00 1.2320000000000000e+01  -9.9999999999999995e-07 -0.0000000000000000e+00 -1.9999999999999999e-06
    25 0  0.0000000000000000e+00 1.0560000000000000e+01 0.0000000000000000e+00  -9.9999999999999995e-07 -9.9999999999999995e-07 -9.9999999999999995e-07
    26 0  1.7600000000000000e+00 1.2320000000000000e+01 1.7600000000000000e+00  -9.9999999999999995e-07 -1.9999999999999999e-06 9.9999999999999995e-07
    27 0  0.0000000000000000e+00 1.0560000000000000e+01 3.5200000000000000e+00  -9.9999999999999995e-07 -1.9999999999999999e-06 1.9999999999999999e-06
    28 0  1.7600000000000000e+00 1.2320000000000000e+01 5.2800000000000002e+00  -9.9999999999999995e-07 -1.9999999999999999e-06 1.9999999999999999e-06
    29 0  0.0000000000000000e+00 1.0560000000000000e+01 7.0400000000000000e+00  -9.9999999999999995e-07 -1.9999999999999999e-06 0.0000000000000000e+00
    30 0  1.7600000000000000e+00 1.2320000000000000e+01 8.8000000000000007e+00  -9.9999999999999995e-07 -9.9999999999999995e-07 -0.0000000000000000e+00
    31 0  0.0000000000000000e+00 1.0560000000000000e+01 1.0560000000000000e+01  -0.0000000000000000e+00 -9.9999999999999995e-07 -9.9999999999999995e-07
    32 0  1.7600000000000000e+00 1.2320000000000000e+01 1.2320000000000000e+01  -9.9999999999999995e-07 -1.9999999999999999e-06 -3.0000000000000001e-06
    33 0  3.5200000000000000e+00 0.0000000000000000e+00 0.0000000000000000e+00  -0.0000000000000000e+00 -0.0000000000000000e+00 -9.9999999999999995e-07
    34 0  5.2800000000000002e+00 1.7600000000000000e+00 1.7600000000000000e+00  0.0000000000000000e+00 1.9999999999999999e-06 9.9999999999999995e-07
    35 0  3.5200000000000000e+00 0.0000000000000000e+00 3.5200000000000000e+00  -0.0000000000000000e+00 0.0000000000000000e+00 1.9999999999999999e-06
    36 0  5.2800000000000002e+00 1.7600000000000000e+00 5.2800000000000002e+00  0.0000000000000000e+00 1.9999999999999999e-06 1.9999999999999999e-06
    37 0  3.5200000000000000e+00 0.0000000000000000e+00 7.0400000000000000e+00  -0.0000000000000000e+00 -0.0000000000000000e+00 9.9999999999999995e-07
    38 0  5.2800000000000002e+00 1.7600000000000000e+00 8.8000000000000007e+00  -0.0000000000000000e+00 9.9999999999999995e-07 -9.9999999999999995e-07
    39 0  3.5200000000000000e+00 0.0000000000000000e+00 1.0560000000000000e+01  -9.9999999999999995e-07 -0.0000000000000000e+00 -1.9999999999999999e-06
    40 0  5.2800000000000002e+00 1.7600000000000000e+00 1.2320000000000000e+01  0.0000000000000000e+00 9.9999999999999995e-07 -1.9999999999999999e-06
    41 0  3.5200000000000000e+00 3.5200000000000000e+00 0.0000000000000000e+00  -0.0000000000000000e+00 1.9999999999999999e-06 -0.0000000000000000e+00
    42 0  5.2800000000000002e+00 5.2800000000000002e+00 1.7600000000000000e+00  9.9999999999999995e-07 1.9999999999999999e-06 1.9999999999999999e-06
    43 0  3.5200000000000000e+00 3.5200000000000000e+00 3.5200000000000000e+00  -0.0000000000000000e+00 1.9999999999999999e-06 1.9999999999999999e-06
    44 0  5.2800000000000002e+00 5.2800000000000002e+00 5.2800000000000002e+00  0.0000000000000000e+00 9.9999999999999995e-07 1.9999999999999999e-06
    45 0  3.5200000000000000e+00 3.5200000000000000e+00 7.0400000000000000e+00  -0.0000000000000000e+00 1.9999999999999999e-06 9.9999999999999995e-07
    46 0  5.2800000000000002e+00 5.2800000000000002e+00 8.8000000000000007e+00  0.0000000000000000e+00 9.9999999999999995e-07 -9.9999999999999995e-07
    47 0  3.5200000000000000e+00 3.5200000000000000e+00 1.0560000000000000e+01  -9.9999999999999995e-07 9.9999999999999995e-07 -1.9999999999999999e-06
    48 0  5.2800000000000002e+00 5.2800000000000002e+00 1.2320000000000000e+01  9.9999999999999995e-07 9.9999999999999995e-07 -1.9999999999999999e-06
    49 0  3.5200000000000000e+00 7.0400000000000000e+00 0.0000000000000000e+00  0.0000000000000000e+00 0.0000000000000000e+00 -9.9999999999999995e-07
    50 0  5.2800000000000002e+00 8.8000000000000007e+00 1.7600000000000000e+00  9.9999999999999995e-07 -9.9999999999999995e-07 9.9999999999999995e-07
    51 0  3.5200000000000000e+00 7.0400000000000000e+00 3.5200000000000000e+00  0.0000000000000000e+00 0.0000000000000000e+00 1.9999999999999999e-06
    52 0  5.2800000000000002e+00 8.8000000000000007e+00 5.2800000000000002e+00  0.0000000000000000e+00 -9.9999999999999995e-07 1.9999999999999999e-06
    53 0  3.5200000000000000e+00 7.0400000000000000e+00 7.0400000000000000e+00  -0.0000000000000000e+00 0.0000000000000000e+00 9.9999999999999995e-07
    54 0  5.2800000000000002e+00 8.8000000000000007e+00 8.8000000000000007e+00  0.0000000000000000e+00 -9.9999999999999995e-07 -9.9999999999999995e-07
    55 0  3.5200000000000000e+00 7.0400000000000000e+00 1.0560000000000000e+01  0.0000000000000000e+00 9.9999999999999995e-07 -3.0000000000000001e-06
    56 0  5.2800000000000002e+00 8.8000000000000007e+00 1.2320000000000000e+01  0.0000000000000000e+00 -9.9999999999999995e-07 -1.9999999999999999e-06
    57 0  3.5200000000000000e+00 1.0560000000000000e+01 0.0000000000000000e+00  -0.0000000000000000e+00 -1.9999999999999999e-06 -9.9999999999999995e-07
    58 0  5.2800000000000002e+00 1.2320000000000000e+01 1.7600000000000000e+00  0.0000000000000000e+00 -1.9999999999999999e-06 9.9999999999999995e-07
    59 0  3.5200000000000000e+00 1.0560000000000000e+01 3.5200000000000000e+00  0.0000000000000000e+00 -1.9999999999999999e-06 1.9999999999999999e-06
    60 0  5.2800000000000002e+00 1.2320000000000000e+01 5.2800000000000002e+00  0.0000000000000000e+00 -1.9999999999999999e-06 1.9999999999999999e-06
    61 0  3.5200000000000000e+00 1.0560000000000000e+01 7.0400000000000000e+00  -0.0000000000000000e+00 -1.9999999999999999e-06 9.9999999999999995e-07
    62 0  5.2800000000000002e+00 1.2320000000000000e+01 8.8000000000000007e+00  -0.0000000000000000e+00 -1.9999999999999999e-06 -9.9999999999999995e-07
    63 0  3.5200000000000000e+00 1.0560000000000000e+01 1.0560000000000000e+01  -9.9999999999999995e-07 -1.9999999999999999e-06 -1.9999999999999999e-06
    64 0  5.2800000000000002e+00 1.2320000000000000e+01 1.2320000000000000e+01  -0.0000000000000000e+00 -1.9999999999999999e-06 -1.9999999999999999e-06
    65 0  7.0400000000000000e+00 0.0000000000000000e+00 0.0000000000000000e+00  9.9999999999999995e-07 -0.0000000000000000e+00 -9.9999999999999995e-07
    66 0  8.8000000000000007e+00 1.7600000000000000e+00 1.7600000000000000e+00  9.9999999999999995e-07 9.9999999999999995e-07 9.9999999999999995e-07
    67 0  7.0400000000000000e+00 0.0000000000000000e+00 3.5200000000000000e+00  0.0000000000000000e+00 -9.9999999999999995e-07 1.9999999999999999e-06
    68 0  8.8000000000000007e+00 1.7600000000000000e+00 5.2800000000000002e+00  0.0000000000000000e+00 9.9999999999999995e-07 1.9999999999999999e-06
    69 0  7.0400000000000000e+00 0.0000000000000000e+00 7.0400000000000000e+00  0.0000000000000000e+00 -0.0000000000000000e+00 0.0000000000000000e+00
    70 0  8.8000000000000007e+00 1.7600000000000000e+00 8.8000000000000007e+00  0.0000000000000000e+00 1.9999999999999999e-06 -9.9999999999999995e-07
    71 0  7.0400000000000000e+00 0.0000000000000000e+00 1.0560000000000000e+01  0.0000000000000000e+00 0.0000000000000000e+00 -1.9999999999999999e-06
    72 0  8.8000000000000007e+00 1.7600000000000000e+00 1.2320000000000000e+01  9.9999999999999995e-07 1.9999999999999999e-06 -1.9999999999999999e-06
    73 0  7.0400000000000000e+00 3.5200000000000000e+00 0.0000000000000000e+00  9.9999999999999995e-07 1.9999999999999999e-06 -9.9999999999999995e-07
    74 0  8.8000000000000007e+00 5.2800000000000002e+00 1.7600000000000000e+00  9.9999999999999995e-07 1.9999999999999999e-06 9.9999999999999995e-07
    75 0  7.0400000000000000e+00 3.5200000000000000e+00 3.5200000000000000e+00  0.0000000000000000e+00 1.9999999999999999e-06 1.9999999999999999e-06
    76 0  8.8000000000000007e+00 5.2800000000000002e+00 5.2800000000000002e+00  0.0000000000000000e+00 9.9999999999999995e-07 1.9999999999999999e-06
    77 0  7.0400000000000000e+00 3.5200000000000000e+00 7.0400000000000000e+00  0.0000000000000000e+00 1.9999999999999999e-06 9.9999999999999995e-07
    78 0  8.8000000000000007e+00 5.2800000000000002e+00 8.8000000000000007e+00  0.0000000000000000e+00 1.9999999999999999e-06 -0.0000000000000000e+00
    79 0  7.0400000000000000e+00 3.5200000000000000e+00 1.0560000000000000e+01  9.9999999999999995e-07 1.9999999999999999e-06 -1.9999999999999999e-06
    80 0  8.8000000000000007e+00 5.2800000000000002e+00 1.2320000000000000e+01  9.9999999999999995e-07 9.9999999999999995e-07 -1.9999999999999999e-06
    81 0  7.0400000000000000e+00 7.0400000000000000e+00 0.0000000000000000e+00  9.9999999999999995e-07 -0.0000000000000000e+00 -0.0000000000000000e+00
    82 0  8.8000000000000007e+00 8.8000000000000007e+00 1.7600000000000000e+00  9.9999999999999995e-07 -9.9999999999999995e-07 9.9999999999999995e-07
    83 0  7.0400000000000000e+00 7.0400000000000000e+00 3.5200000000000000e+00  9.9999999999999995e-07 -0.0000000000000000e+00 1.9999999999999999e-06
    84 0  8.8000000000000007e+00 8.8000000000000007e+00 5.2800000000000002e+00  9.9999999999999995e-07 -9.9999999999999995e-07 9.9999999999999995e-07
    85 0  7.0400000000000000e+00 7.0400000000000000e+00 7.0400000000000000e+00  9.9999999999999995e-07 0.0000000000000000e+00 9.9999999999999995e-07
    86 0  8.8000000000000007e+00 8.8000000000000007e+00 8.8000000000000007e+00  0.0000000000000000e+00 -1.9999999999999999e-06 -0.0000000000000000e+00
    87 0  7.0400000000000000e+00 7.0400000000000000e+00 1.0560000000000000e+01  9.9999999999999995e-07 0.0000000000000000e+00 -1.9999999999999999e-06
    88 0  8.8000000000000007e+00 8.8000000000000007e+00 1.2320000000000000e+01  9.9999999999999995e-07 -9.9999999999999995e-07 -1.9999999999999999e-06
    89 0  7.0400000000000000e+00 1.0560000000000000e+01 0.0000000000000000e+00  9.9999999999999995e-07 -1.9999999999999999e-06 -0.0000000000000000e+00
    90 0  8.8000000000000007e+00 1.2320000000000000e+01 1.7600000000000000e+00  9.9999999999999995e-07 -1.9999999999999999e-06 9.9999999999999995e-07
    91 0  7.0400000000000000e+00 1.0560000000000000e+01 3.5200000000000000e+00  9.9999999999999995e-07 -1.9999999999999999e-06 1.9999999999999999e-06
    92 0  8.8000000000000007e+00 1.2320000000000000e+01 5.2800000000000002e+00  9.9999999999999995e-07 -1.9999999999999999e-06 1.9999999999999999e-06
    93 0  7.0400000000000000e+00 1.0560000000000000e+01 7.0400000000000000e+00  0.0000000000000000e+00 -1.9999999999999999e-06 0.0000000000000000e+00
    94 0  8.8000000000000007e+00 1.2320000000000000e+01 8.8000000000000007e+00  9.9999999999999995e-07 -1.9999999999999999e-06 -9.9999999999999995e-07
    95 0  7.0400000000000000e+00 1.0560000000000000e+01 1.0560000000000000e+01  9.9999999999999995e-07 -1.9999999999999999e-06 -1.9999999999999999e-06
    96 0  8.8000000000000007e+00 1.2320000000000000e+01 1.2320000000000000e+01  9.9999999999999995e-07 -1.9999999999999999e-06 -1.9999999999999999e-06
    97 0  1.0560000000000000e+01 0.0000000000000000e+00 0.0000000000000000e+00  9.9999999999999995e-07 -0.0000000000000000e+00 -9.9999999999999995e-07
    98 0  1.2320000000000000e+01 1.7600000000000000e+00 1.7600000000000000e+00  -0.0000000000000000e+00 1.9999999999999999e-06 9.9999999999999995e-07
    99 0  1.0560000000000000e+01 0.0000000000000000e+00 3.5200000000000000e+00  9.9999999999999995e-07 -9.9999999999999995e-07 1.9999999999999999e-06
    100 0  1.2320000000000000e+01 1.7600000000000000e+00 5.2800000000000002e+00  0.0000000000000000e+00 9.9999999999999995e-07 9.9999999999999995e-07
    101 0  1.0560000000000000e+01 0.0000000000000000e+00 7.0400000000000000e+00  9.9999999999999995e-07 -9.9999999999999995e-07 0.0000000000000000e+00
    102 0  1.2320000000000000e+01 1.7600000000000000e+00 8.8000000000000007e+00  0.0000000000000000e+00 9.9999999999999995e-07 -9.9999999999999995e-07
    103 0  1.0560000000000000e+01 0.0000000000000000e+00 1.0560000000000000e+01  9.9999999999999995e-07 -0.0000000000000000e+00 -9.9999999999999995e-07
    104 0  1.2320000000000000e+01 1.7600000000000000e+00 1.2320000000000000e+01  -0.0000000000000000e+00 9.9999999999999995e-07 -9.9999999999999995e-07
    105 0  1.0560000000000000e+01 3.5200000000000000e+00 0.0000000000000000e+00  9.9999999999999995e-07 1.9999999999999999e-06 -9.9999999999999995e-07
    106 0  1.2320000000000000e+01 5.2800000000000002e+00 1.7600000000000000e+00  -0.0000000000000000e+00 9.9999999999999995e-07 9.9999999999999995e-07
    107 0  1.0560000000000000e+01 3.5200000000000000e+00 3.5200000000000000e+00  9.9999999999999995e-07 1.9999999999999999e-06 9.9999999999999995e-07
    108 0  1.2320000000000000e+01 5.2800000000000002e+00 5.2800000000000002e+00  -0.0000000000000000e+00 9.9999999999999995e-07 9.9999999999999995e-07
    109 0  1.0560000000000000e+01 3.5200000000000000e+00 7.0400000000000000e+00  0.0000000000000000e+00 1.9999999999999999e-06 9.9999999999999995e-07
    110 0  1.2320000000000000e+01 5.2800000000000002e+00 8.8000000000000007e+00  -0.0000000000000000e+00 9.9999999999999995e-07 -9.9999999999999995e-07
    111 0  1.0560000000000000e+01 3.5200000000000000e+00 1.0560000000000000e+01  0.0000000000000000e+00 1.9999999999999999e-06 -9.9999999999999995e-07
    112 0  1.2320000000000000e+01 5.2800000000000002e+00 1.2320000000000000e+01  -9.9999999999999995e-07 9.9999999999999995e-07 -9.9999999999999995e-07
    113 0  1.0560000000000000e+01 7.0400000000000000e+00 0.0000000000000000e+00  -0.0000000000000000e+00 -9.9999999999999995e-07 -9.9999999999999995e-07
    114 0  1.2320000000000000e+01 8.8000000000000007e+00 1.7600000000000000e+00  -9.9999999999999995e-07 -9.9999999999999995e-07 9.9999999999999995e-07
    115 0  1.0560000000000000e+01 7.0400000000000000e+00 3.5200000000000000e+00  0.0000000000000000e+00 0.0000000000000000e+00 1.9999999999999999e-06
    116 0  1.2320000000000000e+01 8.8000000000000007e+00 5.2800000000000002e+00  -0.0000000000000000e+00 -9.9999999999999995e-07 1.9999999999999999e-06
    117 0  1.0560000000000000e+01 7.0400000000000000e+00 7.0400000000000000e+00  -0.0000000000000000e+00 0.0000000000000000e+00 9.9999999999999995e-07
    118 0  1.2320000000000000e+01 8.8000000000000007e+00 8.8000000000000007e+00  -9.9999999999999995e-07 -9.9999999999999995e-07 -9.9999999999999995e-07
    119 0  1.0560000000000000e+01 7.0400000000000000e+00 1.0560000000000000e+01  -0.0000000000000000e+00 -0.0000000000000000e+00 -1.9999999999999999e-06
    120 0  1.2320000000000000e+01 8.8000000000000007e+00 1.2320000000000000e+01  -9.9999999999999995e-07 -9.9999999999999995e-07 -1.9999999999999999e-06
    121 0  1.0560000000000000e+01 1.0560000000000000e+01 0.0000000000000000e+00  0.0000000000000000e+00 -1.9999999999999999e-06 -9.9999999999999995e-07
    122 0  1.2320000000000000e+01 1.2320000000000000e+01 1.7600000000000000e+00  -9.9999999999999995e-07 -9.9999999999999995e-07 9.9999999999999995e-07
    123 0  1.0560000000000000e+01 1.0560000000000000e+01 3.5200000000000000e+00  0.0000000000000000e+00 -1.9999999999999999e-06 1.9999999999999999e-06
    124 0  1.2320000000000000e+01 1.2320000000000000e+01 5.2800000000000002e+00  -0.0000000000000000e+00 -9.9999999999999995e-07 1.9999999999999999e-06
    125 0  1.0560000000000000e+01 1.0560000000000000e+01 7.0400000000000000e+00  0.0000000000000000e+00 -1.9999999999999999e-06 0.0000000000000000e+00
    126 0  1.2320000000000000e+01 1.2320000000000000e+01 8.8000000000000007e+00  0.0000000000000000e+00 -1.9999999999999999e-06 -9.9999999999999995e-07
    127 0  1.0560000000000000e+01 1.0560000000000000e+01 1.0560000000000000e+01  0.0000000000000000e+00 -1.9999999999999999e-06 -9.9999999999999995e-07
    128 0  1.2320000000000000e+01 1.2320000000000000e+01 1.2320000000000000e+01  -0.0000000000000000e+00 -9.9999999999999995e-07 -1.9999999999999999e-06
 Energy
    -2.4247434582000000e+02
 PlusStress:  xx          yy          zz          yz          xz          xy
     -1.5967250000000000e+01 -1.5967240000000000e+01 -1.5967240000000000e+01 0.0000000000000000e+00 -0.0000000000000000e+00 -0.0000000000000000e+00
 Feature   from	 database:Li_NVT300.cfg
 Feature   selected_eqn_inds	0
END_CFG

BEGIN_CFG
 Size
    128
 Supercell
    1.4080000000000000e+01 0.0000000000000000e+00 0.0000000000000000e+00
    0.0000000000000000e+00 1.4080000000000000e+01 0.0000000000000000e+00
    0.0000000000000000e+00 0.0000000000000000e+00 1.4080000000000000e+01
 AtomData:  id type       cartes_x      cartes_y      cartes_z           fx          fy          fz
    1 0  1.4056190000000001e+01 1.3965180000000000e+01 1.7790000000000000e-01  -4.5969999999999997e-02 1.5422000000000000e-01 2.5912900000000000e-01
    2 0  1.8498900000000000e+00 1.7657000000000000e+00 1.7595700000000001e+00  -7.8049999999999994e-02 -6.6806000000000004e-02 8.5292999999999994e-02
    3 0  2.1756000000000000e-01 2.5385999999999997e-01 3.9887299999999999e+00  -6.2156999999999997e-02 3.4100999999999999e-02 -2.6018799999999997e-01
    4 0  1.9652000000000001e+00 2.4474399999999998e+00 5.3499200000000000e+00  7.1539999999999998e-03 -6.2236499999999995e-01 -4.4291700000000001e-01
    5 0  8.1629999999999994e-02 4.4172000000000000e-01 6.8959700000000002e+00  3.4160499999999999e-01 5.8110000000000002e-03 -1.3726800000000000e-01
    6 0  1.9828900000000000e+00 8.5419999999999996e-01 8.9289500000000004e+00  3.9174100000000001e-01 4.3365199999999998e-01 -2.4820000000000000e-01
    7 0  2.1382000000000001e-01 1.4014510000000000e+01 1.0204190000000001e+01  -3.2605099999999998e-01 -1.7222499999999999e-01 1.9037299999999999e-01
    8 0  1.5256400000000001e+00 1.7621899999999999e+00 1.2612340000000000e+01  1.5770799999999999e-01 -1.5680200000000000e-01 -2.4287000000000000e-01
    9 0  1.3760920000000000e+01 2.9832500000000000e+00 1.4418000000000000e-01  -5.7520000000000002e-02 2.2446099999999999e-01 -7.9115000000000005e-02
    10 0  1.4951900000000000e+00 4.8095200000000000e+00 1.5889899999999999e+00  -1.9371200000000000e-01 -6.4558000000000004e-02 2.0876000000000000e-01
    11 0  1.3577120000000001e+01 2.9951300000000001e+00 3.5404300000000002e+00  5.0193500000000002e-01 2.9948700000000000e-01 -5.1960000000000001e-03
    12 0  1.6349300000000000e+00 4.9595099999999999e+00 5.0927100000000003e+00  -2.6022000000000000e-02 3.6989200000000000e-01 -2.9923400000000000e-01
    13 0  4.6195000000000003e-01 3.3243499999999999e+00 7.5555700000000003e+00  -2.3388300000000001e-01 5.7429999999999998e-03 -1.7014499999999999e-01
    14 0  1.6399900000000001e+00 5.4865599999999999e+00 8.9964899999999997e+00  -6.7016999999999993e-02 -2.9383799999999999e-01 3.6348900000000001e-01
    15 0  1.3663470000000000e+01 3.1616100000000000e+00 1.0300810000000000e+01  2.7633200000000002e-01 1.0403000000000001e-02 2.5237700000000002e-01
    16 0  1.6080700000000001e+00 5.0061799999999996e+00 1.2247339999999999e+01  3.5527000000000003e-02 -2.5460000000000000e-02 -2.8135000000000000e-02
    17 0  4.5404000000000000e-01 6.8557600000000001e+00 1.4025639999999999e+01  -3.8018900000000000e-01 8.7941000000000005e-02 2.1059000000000001e-02
    18 0  1.6734100000000001e+00 8.7941599999999998e+00 1.6233299999999999e+00  -1.6704400000000000e-01 6.8734000000000003e-02 -6.7924999999999999e-02
    19 0  1.3952070000000001e+01 6.9676499999999999e+00 3.2979099999999999e+00  8.6497000000000004e-02 4.4685000000000002e-02 4.4062999999999998e-02
    20 0  1.0495000000000001e+00 8.8137100000000004e+00 5.9216800000000003e+00  -1.6778000000000001e-02 -1.0647400000000000e-01 -1.9465499999999999e-01
    21 0  2.6060000000000000e-02 6.4214000000000002e+00 6.8150500000000003e+00  -5.0076000000000002e-02 5.2570000000000004e-03 2.0308200000000001e-01
    22 0  1.4163900000000000e+00 8.1859099999999998e+00 9.0023199999999992e+00  1.1915800000000000e-01 4.9741400000000002e-01 1.1846500000000000e-01
    23 0  1.3526550000000000e+01 6.9438700000000004e+00 1.0792630000000001e+01  3.0335299999999998e-01 -2.1677999999999999e-02 -1.8173000000000000e-01
    24 0  2.3507300000000000e+00 8.7448599999999992e+00 1.2798920000000001e+01  -5.8104900000000004e-01 1.0033900000000000e-01 -1.4873500000000001e-01
    25 0  1.4048320000000000e+01 1.1117990000000001e+01 1.4680000000000001e-01  4.3692000000000002e-02 -2.0396300000000001e-01 1.2523300000000001e-01
    26 0  1.6081600000000000e+00 1.2137400000000000e+01 2.4243600000000001e+00  -9.8211999999999994e-02 4.1108200000000000e-01 -5.2928999999999997e-02
    27 0  1.3949740000000000e+01 1.0887020000000000e+01 4.1003999999999996e+00  2.3916100000000001e-01 -2.3263000000000000e-01 8.9931999999999998e-02
    28 0  2.0027599999999999e+00 1.2672060000000000e+01 5.3202100000000003e+00  3.9291000000000000e-02 2.6602000000000001e-02 2.4147800000000000e-01
    29 0  9.7199999999999995e-02 1.1429010000000000e+01 7.4893900000000002e+00  1.3261700000000001e-01 -2.7996399999999999e-01 -2.0095199999999999e-01
    30 0  2.5777800000000002e+00 1.1992190000000001e+01 8.9112600000000004e+00  -1.8102399999999999e-01 4.4825700000000002e-01 -2.8675899999999999e-01
    31 0  1.4008150000000001e+01 1.0472550000000000e+01 1.0275470000000000e+01  5.8809000000000000e-02 2.1995799999999999e-01 -7.3689999999999997e-03
    32 0  1.3116000000000001e+00 1.2637919999999999e+01 1.2185980000000001e+01  1.8031700000000001e-01 -2.6357799999999998e-01 7.2670999999999999e-02
    33 0  3.6737199999999999e+00 1.3951660000000000e+01 2.1212000000000000e-01  -3.7428899999999998e-01 2.6756900000000000e-01 1.5900000000000001e-02
    34 0  5.8855500000000003e+00 1.5523100000000001e+00 1.3942600000000001e+00  -1.6595900000000000e-01 -9.1317999999999996e-02 3.0307000000000001e-02
    35 0  3.6207600000000002e+00 1.6228000000000001e-01 3.4179800000000000e+00  -3.0914000000000001e-02 7.1599999999999995e-04 4.1884999999999999e-02
    36 0  5.3162700000000003e+00 2.0636800000000002e+00 4.5771800000000002e+00  1.5507999999999999e-02 1.5564200000000000e-01 7.9478999999999994e-02
    37 0  3.8682699999999999e+00 6.3153999999999999e-01 6.6163499999999997e+00  -1.5139900000000001e-01 -2.2929200000000000e-01 -4.8854000000000002e-02
    38 0  5.1847000000000003e+00 1.3391700000000000e+00 8.9872599999999991e+00  4.6893999999999998e-02 2.3760400000000001e-01 4.5519999999999996e-03
    39 0  3.6806800000000002e+00 1.3813650000000001e+01 1.1258179999999999e+01  -2.1085899999999999e-01 1.7783399999999999e-01 -3.4706199999999998e-01
    40 0  5.5849000000000002e+00 1.3900800000000000e+00 1.2265860000000000e+01  -2.7390999999999999e-02 3.3919300000000002e-01 9.1359999999999997e-02
    41 0  3.7723200000000001e+00 3.2068300000000001e+00 1.3911009999999999e+01  7.6132000000000005e-02 1.1647299999999999e-01 -7.5271000000000005e-02
    42 0  5.3612500000000001e+00 6.2209500000000002e+00 2.7484700000000002e+00  -5.1152999999999997e-02 1.5895200000000001e-01 -3.6653700000000000e-01
    43 0  3.8478400000000001e+00 3.7684500000000001e+00 2.7447200000000000e+00  -2.8846000000000000e-02 -7.3081999999999994e-02 1.9954400000000000e-01
    44 0  4.8935300000000002e+00 5.4169200000000002e+00 5.3560499999999998e+00  -2.0672099999999999e-01 7.0049999999999999e-03 -1.9714100000000001e-01
    45 0  3.1980100000000000e+00 3.7873100000000002e+00 7.2157499999999999e+00  5.1692199999999999e-01 -1.0814699999999999e-01 3.6304500000000001e-01
    46 0  4.9599700000000002e+00 5.3811099999999996e+00 9.2834500000000002e+00  -3.2200000000000002e-04 2.1255299999999999e-01 -3.4979900000000003e-01
    47 0  3.2407800000000000e+00 3.1360500000000000e+00 1.0583220000000001e+01  1.2944900000000001e-01 8.2559999999999995e-03 -6.6411999999999999e-02
    48 0  5.7926200000000003e+00 5.6659899999999999e+00 1.2602240000000000e+01  1.7145000000000001e-02 -3.3102300000000001e-01 2.5319000000000001e-02
    49 0  3.5219299999999998e+00 6.2691499999999998e+00 4.1782000000000002e-01  1.0306100000000000e-01 3.0142000000000002e-01 -4.4394999999999997e-02
    50 0  5.1287000000000003e+00 9.5057299999999998e+00 1.7488900000000001e+00  -1.2484300000000000e-01 -3.8736399999999999e-01 -4.8038999999999998e-02
    51 0  2.7253400000000001e+00 7.3412800000000002e+00 3.6368800000000001e+00  1.4096300000000000e-01 -2.7051999999999998e-01 1.4420900000000000e-01
    52 0  5.2536199999999997e+00 8.3305399999999992e+00 4.9015500000000003e+00  -2.3389000000000000e-02 3.1080300000000000e-01 8.1659999999999996e-03
    53 0  3.1989500000000000e+00 6.8409199999999997e+00 7.2221799999999998e+00  6.4610000000000001e-02 3.8439000000000001e-02 -3.8346900000000000e-01
    54 0  4.5115600000000002e+00 8.9030400000000007e+00 8.6100600000000007e+00  2.1151100000000000e-01 -8.0110000000000001e-02 1.6387599999999999e-01
    55 0  3.7991199999999998e+00 7.0111900000000000e+00 1.1125690000000001e+01  -2.7979199999999999e-01 -1.2503999999999999e-02 -2.0810400000000001e-01
    56 0  4.9935799999999997e+00 8.7494300000000003e+00 1.2984890000000000e+01  3.6441400000000002e-01 1.3612500000000000e-01 6.5969000000000000e-02
    57 0  2.9192800000000001e+00 1.1057470000000000e+01 5.1554000000000000e-01  3.5763499999999998e-01 2.7673000000000000e-02 -4.6610400000000002e-01
    58 0  5.3576600000000001e+00 1.2507099999999999e+01 1.9890600000000001e+00  -2.8687000000000001e-02 -8.2950999999999997e-02 -1.9102700000000000e-01
    59 0  3.0878199999999998e+00 1.0191020000000000e+01 3.6459000000000001e+00  1.2541800000000000e-01 1.5795899999999999e-01 1.8543999999999999e-01
    60 0  5.1806099999999997e+00 1.1965220000000000e+01 5.0633200000000000e+00  -4.0307000000000003e-02 8.0240000000000006e-02 -1.4588699999999999e-01
    61 0  2.9223200000000000e+00 1.0373530000000001e+01 6.6394399999999996e+00  3.8876500000000003e-01 -1.0984800000000000e-01 5.0899000000000000e-02
    62 0  5.4311100000000003e+00 1.1572329999999999e+01 7.8776200000000003e+00  -1.5225800000000000e-01 2.8627999999999998e-01 4.5466299999999998e-01
    63 0  3.5225900000000001e+00 1.0755459999999999e+01 1.0833600000000001e+01  1.4910200000000001e-01 -3.4632600000000002e-01 3.9333099999999999e-01
    64 0  5.2731700000000004e+00 1.2359940000000000e+01 1.2820499999999999e+01  -2.7649000000000000e-02 -6.6768899999999998e-01 4.5239000000000001e-02
    65 0  7.3802199999999996e+00 1.3608470000000001e+01 1.3577859999999999e+01  5.1452999999999999e-02 2.1329999999999998e-02 3.0097400000000002e-01
    66 0  8.8531099999999991e+00 1.2961700000000000e+00 1.6245799999999999e+00  -2.5400800000000001e-01 4.5670500000000003e-01 2.0172200000000001e-01
    67 0  7.1577900000000003e+00 1.4062469999999999e+01 3.5606900000000001e+00  -1.7823200000000000e-01 -2.7584799999999998e-01 -2.6706000000000001e-02
    68 0  8.2233300000000007e+00 1.6394899999999999e+00 5.2405499999999998e+00  3.4932600000000003e-01 3.9312300000000000e-01 9.8419000000000006e-02
    69 0  6.6981700000000002e+00 1.4008839999999999e+01 6.8160999999999996e+00  1.5808200000000000e-01 -1.2579299999999999e-01 -8.3241999999999997e-02
    70 0  8.7790099999999995e+00 1.1831600000000000e+00 8.7564600000000006e+00  -5.0841400000000003e-01 2.8437699999999999e-01 -9.0968999999999994e-02
    71 0  6.6345999999999998e+00 1.3493790000000001e+01 1.0505530000000000e+01  2.1731900000000001e-01 -8.4418000000000007e-02 -1.9646400000000000e-01
    72 0  8.5416200000000000e+00 1.6537500000000001e+00 1.2284480000000000e+01  1.9643000000000001e-02 -7.3079000000000005e-02 -1.3899800000000001e-01
    73 0  7.4543400000000002e+00 3.5649600000000001e+00 1.2801000000000001e-01  -4.2615999999999998e-01 -1.6310800000000000e-01 -4.1356599999999999e-01
    74 0  9.0290999999999997e+00 5.0717699999999999e+00 1.2837499999999999e+00  5.3314600000000001e-01 5.7156700000000005e-01 4.0082499999999999e-01
    75 0  7.0243099999999998e+00 4.0624900000000004e+00 2.9432100000000001e+00  -9.6603999999999995e-02 -3.1867000000000001e-01 1.7504800000000001e-01
    76 0  8.2561199999999992e+00 5.6395499999999998e+00 4.9107900000000004e+00  -7.7600000000000000e-04 -1.1269800000000001e-01 3.0931599999999998e-01
    77 0  6.5117300000000000e+00 3.8667400000000001e+00 6.6424799999999999e+00  2.5930700000000001e-01 -2.7851999999999999e-01 4.4226500000000002e-01
    78 0  8.5678300000000007e+00 5.7484999999999999e+00 9.4209099999999992e+00  2.9531000000000002e-02 -9.4811000000000006e-02 -2.5152099999999999e-01
    79 0  6.7468300000000001e+00 3.7266300000000001e+00 1.0335640000000000e+01  2.2652000000000000e-01 -3.8512000000000002e-01 2.6599800000000001e-01
    80 0  9.0640000000000001e+00 5.5288800000000000e+00 1.2385790000000000e+01  3.7494000000000000e-02 2.1385000000000001e-02 -1.5048100000000000e-01
    81 0  7.5265500000000003e+00 7.2128100000000002e+00 3.2361000000000001e-01  -1.0050099999999999e-01 2.0523600000000000e-01 -1.5397700000000000e-01
